{"model_type": "RandomForestClassifier", "n_estimators": 300, "n_classes": 2, "classes": [0, 1], "trees": [{"n_nodes": 15, "children_left": [1, 2, 3, -1, 5, -1, -1, -1, 9, 10, 11, -1, -1, -1, -1], "children_right": [8, 7, 4, -1, 6, -1, -1, -1, 14, 13, 12, -1, -1, -1, -1], "feature": [2, 9, 1, -2, 6, -2, -2, -2, 11, 2, 6, -2, -2, -2, -2], "threshold": [-0.5106745511293411, -0.42998459935188293, -0.9054433405399323, -2.0, -0.32679975032806396, -2.0, -2.0, -2.0, 0.7483416497707367, 0.4673195034265518, -0.1553059183061123, -2.0, -2.0, -2.0, -2.0], "value": [[[0.47960848287112584, 0.5203915171288744], [0.7441860465116279, 0.2558139534883721], [0.56, 0.44], [0.0, 1.0], [0.8166666666666667, 0.18333333333333332], [1.0, 0.0], [0.5599999999999999, 0.43999999999999995], [1.0, 0.0], [0.2243589743589744, 0.7756410256410257], [0.11814345991561181, 0.8818565400843882], [0.2978723404255319, 0.7021276595744681], [0.2413793103448276, 0.7586206896551725], [0.3888888888888889, 0.611111111111111], [0.0, 1.0], [0.5599999999999999, 0.44]]]}, {"n_nodes": 9, "children_left": [1, 2, 3, -1, -1, -1, 7, -1, -1], "children_right": [6, 5, 4, -1, -1, -1, 8, -1, -1], "feature": [2, 2, 6, -2, -2, -2, 5, -2, -2], "threshold": [-0.17986516654491425, -0.6874459087848663, -0.39979860186576843, -2.0, -2.0, -2.0, 1.0001313984394073, -2.0, -2.0], "value": [[[0.5201938610662361, 0.4798061389337643], [0.8166666666666667, 0.18333333333333332], [0.5599999999999999, 0.43999999999999995], [1.0, 0.0], [0.0, 1.0], [1.0, 0.0], [0.10810810810810811, 0.8918918918918919], [0.0, 1.0], [0.5599999999999999, 0.43999999999999995]]]}, {"n_nodes": 11, "children_left": [1, 2, -1, 4, 5, -1, -1, -1, 9, -1, -1], "children_right": [8, 3, -1, 7, 6, -1, -1, -1, 10, -1, -1], "feature": [2, 1, -2, 4, 5, -2, -2, -2, 1, -2, -2], "threshold": [-0.14887245744466782, -1.1192810535430908, -2.0, 1.086304247379303, -0.4611171782016754, -2.0, -2.0, -2.0, 0.3847595229744911, -2.0, -2.0], "value": [[[0.43822075782537095, 0.5617792421746295], [0.6839080459770116, 0.3160919540229885], [0.0, 1.0], [0.8122866894197952, 0.18771331058020477], [0.892156862745098, 0.10784313725490195], [0.3888888888888889, 0.611111111111111], [1.0, 0.0], [0.6292134831460673, 0.37078651685393255], [0.10810810810810813, 0.891891891891892], [0.38888888888888884, 0.611111111111111], [0.0, 1.0]]]}, {"n_nodes": 13, "children_left": [1, 2, -1, 4, 5, -1, -1, 8, -1, -1, 11, -1, -1], "children_right": [10, 3, -1, 7, 6, -1, -1, 9, -1, -1, 12, -1, -1], "feature": [2, 7, -2, 6, 8, -2, -2, 1, -2, -2, 5, -2, -2], "threshold": [-0.2041255310177803, -0.4256112575531006, -2.0, -0.4469676613807678, 0.16649580746889114, -2.0, -2.0, -0.6777395904064178, -2.0, -2.0, -1.854553461074829, -2.0, -2.0], "value": [[[0.4590163934426233, 0.5409836065573773], [0.717948717948718, 0.282051282051282], [0.2978723404255319, 0.7021276595744681], [0.8513513513513513, 0.14864864864864863], [0.7179487179487178, 0.282051282051282], [0.5599999999999999, 0.43999999999999995], [0.835820895522388, 0.16417910447761191], [0.9385474860335196, 0.06145251396648045], [1.0, 0.0], [0.8641975308641975, 0.13580246913580246], [0.0, 1.0], [0.0, 1.0], [0.0, 1.0]]]}, {"n_nodes": 11, "children_left": [1, 2, -1, 4, -1, 6, -1, -1, 9, -1, -1], "children_right": [8, 3, -1, 5, -1, 7, -1, -1, 10, -1, -1], "feature": [1, 8, -2, 10, -2, 4, -2, -2, 0, -2, -2], "threshold": [0.3847595229744911, -0.3718206137418747, -2.0, -0.5534397065639496, -2.0, 1.0652602314949036, -2.0, -2.0, -1.4641107320785522, -2.0, -2.0], "value": [[[0.5401929260450163, 0.459807073954984], [0.8135593220338985, 0.1864406779661017], [0.29787234042553196, 0.7021276595744681], [0.8797814207650273, 0.12021857923497266], [0.5599999999999999, 0.43999999999999995], [0.9303797468354431, 0.06962025316455696], [1.0, 0.0], [0.717948717948718, 0.28205128205128205], [0.0, 1.0], [0.0, 1.0], [0.0, 1.0]]]}, {"n_nodes": 13, "children_left": [1, 2, -1, 4, 5, -1, -1, 8, -1, -1, 11, -1, -1], "children_right": [10, 3, -1, 7, 6, -1, -1, 9, -1, -1, 12, -1, -1], "feature": [1, 11, -2, 9, 6, -2, -2, 1, -2, -2, 3, -2, -2], "threshold": [0.3847595229744911, -0.5882346332073212, -2.0, -0.4411933422088623, -0.4469676613807678, -2.0, -2.0, -0.5899936258792877, -2.0, -2.0, -0.867441862821579, -2.0, -2.0], "value": [[[0.5201938610662361, 0.4798061389337643], [0.7000000000000001, 0.3], [0.2028985507246377, 0.7971014492753623], [0.7924528301886793, 0.20754716981132074], [0.6796116504854368, 0.32038834951456313], [0.4883720930232558, 0.5116279069767442], [0.8166666666666667, 0.18333333333333332], [0.9333333333333333, 0.06666666666666667], [1.0, 0.0], [0.835820895522388, 0.16417910447761191], [0.07821229050279331, 0.9217877094972068], [0.0, 1.0], [0.2413793103448276, 0.7586206896551725]]]}, {"n_nodes": 11, "children_left": [1, 2, 3, -1, -1, -1, 7, -1, 9, -1, -1], "children_right": [6, 5, 4, -1, -1, -1, 8, -1, 10, -1, -1], "feature": [2, 11, 5, -2, -2, -2, 6, -2, 5, -2, -2], "threshold": [-0.17986516654491425, 0.20724502950906754, 0.4751954525709152, -2.0, -2.0, -2.0, -0.4271310567855835, -2.0, 0.42262154817581177, -2.0, -2.0], "value": [[[0.5201938610662362, 0.4798061389337644], [0.930379746835443, 0.06962025316455694], [0.835820895522388, 0.16417910447761191], [0.3888888888888889, 0.611111111111111], [1.0, 0.0], [1.0, 0.0], [0.09240924092409242, 0.9075907590759076], [0.3888888888888889, 0.611111111111111], [0.052434456928838954, 0.947565543071161], [0.0, 1.0], [0.3888888888888889, 0.611111111111111]]]}, {"n_nodes": 11, "children_left": [1, -1, 3, 4, -1, 6, -1, -1, 9, -1, -1], "children_right": [2, -1, 8, 5, -1, 7, -1, -1, 10, -1, -1], "feature": [3, -2, 9, 11, -2, 7, -2, -2, 8, -2, -2], "threshold": [-0.7935186624526978, -2.0, -0.4411933422088623, -0.10890368814580142, -2.0, 0.17308952286839485, -2.0, -2.0, -0.05278400890529156, -2.0, -2.0], "value": [[[0.5600000000000004, 0.44000000000000017], [0.0, 1.0], [0.7608695652173912, 0.23913043478260865], [0.5217391304347826, 0.4782608695652174], [0.29787234042553196, 0.7021276595744681], [0.6140350877192982, 0.38596491228070173], [0.835820895522388, 0.16417910447761191], [0.2978723404255319, 0.7021276595744681], [0.8896321070234113, 0.11036789297658862], [0.6796116504854367, 0.3203883495145631], [1.0, 0.0]]]}, {"n_nodes": 15, "children_left": [1, 2, 3, -1, 5, -1, -1, 8, -1, 10, -1, -1, 13, -1, -1], "children_right": [12, 7, 4, -1, 6, -1, -1, 9, -1, 11, -1, -1, 14, -1, -1], "feature": [8, 6, 6, -2, 10, -2, -2, 9, -2, 1, -2, -2, 0, -2, -2], "threshold": [0.6093537509441376, -0.43086110055446625, -0.4637753367424011, -2.0, 0.31399887055158615, -2.0, -2.0, -0.6229221522808075, -2.0, -0.296717744320631, -2.0, -2.0, 0.06188276223838329, -2.0, -2.0], "value": [[[0.4382207578253709, 0.5617792421746295], [0.2978723404255319, 0.7021276595744678], [0.6562499999999999, 0.34374999999999994], [1.0, 0.0], [0.459016393442623, 0.5409836065573771], [0.0, 1.0], [0.717948717948718, 0.28205128205128205], [0.05035971223021583, 0.949640287769784], [0.29787234042553196, 0.7021276595744681], [0.0, 1.0], [0.0, 1.0], [0.0, 1.0], [0.9197080291970804, 0.08029197080291971], [0.7924528301886792, 0.20754716981132074], [1.0, 0.0]]]}, {"n_nodes": 11, "children_left": [1, 2, 3, 4, -1, -1, -1, 8, -1, -1, -1], "children_right": [10, 7, 6, 5, -1, -1, -1, 9, -1, -1, -1], "feature": [9, 9, 4, 2, -2, -2, -2, 2, -2, -2, -2], "threshold": [0.5769045799970627, -0.3705515116453171, 0.38948746025562286, -0.7039250433444977, -2.0, -2.0, -2.0, -0.21654989570379257, -2.0, -2.0, -2.0], "value": [[[0.6373626373626377, 0.3626373626373628], [0.7395264116575593, 0.2604735883424408], [0.48837209302325596, 0.5116279069767443], [0.2204724409448819, 0.7795275590551181], [0.5599999999999999, 0.43999999999999995], [0.0, 1.0], [0.7480916030534351, 0.2519083969465649], [0.9621993127147767, 0.037800687285223365], [1.0, 0.0], [0.8641975308641974, 0.13580246913580246], [0.0, 1.0]]]}, {"n_nodes": 11, "children_left": [1, 2, -1, 4, -1, -1, 7, 8, -1, -1, -1], "children_right": [6, 3, -1, 5, -1, -1, 10, 9, -1, -1, -1], "feature": [6, 9, -2, 2, -2, -2, 8, 3, -2, -2, -2], "threshold": [-0.43086110055446625, -0.3938058018684387, -2.0, -0.6954894959926605, -2.0, -2.0, 0.5119209289550781, 0.5044008642435074, -2.0, -2.0, -2.0], "value": [[[0.5000000000000002, 0.5000000000000001], [0.9197080291970802, 0.0802919708029197], [0.5599999999999999, 0.43999999999999995], [1.0, 0.0], [1.0, 0.0], [1.0, 0.0], [0.16374269005847952, 0.8362573099415205], [0.04844290657439448, 0.9515570934256057], [0.0, 1.0], [0.29787234042553196, 0.7021276595744681], [0.7924528301886792, 0.20754716981132074]]]}, {"n_nodes": 11, "children_left": [1, 2, 3, 4, -1, -1, -1, -1, 9, -1, -1], "children_right": [8, 7, 6, 5, -1, -1, -1, -1, 10, -1, -1], "feature": [5, 6, 2, 8, -2, -2, -2, -2, 6, -2, -2], "threshold": [0.4971287250518799, -0.42355483770370483, -0.5159418433904648, 0.2745523899793625, -2.0, -2.0, -2.0, -2.0, 0.0170749519020319, -2.0, -2.0], "value": [[[0.5201938610662362, 0.4798061389337644], [0.33245382585751987, 0.6675461741424802], [0.6206896551724137, 0.37931034482758613], [0.9197080291970802, 0.0802919708029197], [1.0, 0.0], [0.717948717948718, 0.28205128205128205], [0.0, 1.0], [0.0, 1.0], [0.8166666666666667, 0.18333333333333332], [1.0, 0.0], [0.2413793103448276, 0.7586206896551725]]]}, {"n_nodes": 13, "children_left": [1, 2, 3, -1, -1, 6, -1, 8, -1, -1, 11, -1, -1], "children_right": [10, 5, 4, -1, -1, 7, -1, 9, -1, -1, 12, -1, -1], "feature": [2, 5, 3, -2, -2, 7, -2, 6, -2, -2, 1, -2, -2], "threshold": [-0.17986516654491425, -0.09597943164408207, 0.4052184373140335, -2.0, -2.0, 0.1926848366856575, -2.0, -0.47488683462142944, -2.0, -2.0, 1.7436771392822266, -2.0, -2.0], "value": [[[0.45901639344262335, 0.5409836065573773], [0.717948717948718, 0.28205128205128205], [0.3529411764705882, 0.6470588235294117], [0.65625, 0.34375], [0.0, 1.0], [0.9051724137931033, 0.09482758620689653], [1.0, 0.0], [0.8166666666666668, 0.18333333333333335], [1.0, 0.0], [0.65625, 0.34375], [0.10810810810810811, 0.8918918918918919], [0.0, 1.0], [0.5599999999999999, 0.43999999999999995]]]}, {"n_nodes": 13, "children_left": [1, 2, -1, 4, 5, -1, -1, 8, -1, -1, 11, -1, -1], "children_right": [10, 3, -1, 7, 6, -1, -1, 9, -1, -1, 12, -1, -1], "feature": [7, 7, -2, 8, 8, -2, -2, 1, -2, -2, 0, -2, -2], "threshold": [0.5883771777153015, -0.3719012141227722, -2.0, 0.28686344623565674, -0.13756362721323967, -2.0, -2.0, -0.5783538222312927, -2.0, -2.0, -0.37294328212738037, -2.0, -2.0], "value": [[[0.47960848287112595, 0.5203915171288747], [0.6727688787185354, 0.3272311212814645], [0.0, 1.0], [0.8166666666666667, 0.18333333333333332], [0.9468599033816426, 0.05314009661835749], [0.8842105263157894, 0.11578947368421053], [1.0, 0.0], [0.6405228758169933, 0.3594771241830064], [1.0, 0.0], [0.5045045045045046, 0.4954954954954955], [0.0, 1.0], [0.0, 1.0], [0.0, 1.0]]]}, {"n_nodes": 11, "children_left": [1, 2, -1, -1, 5, -1, 7, 8, -1, -1, -1], "children_right": [4, 3, -1, -1, 6, -1, 10, 9, -1, -1, -1], "feature": [3, 5, -2, -2, 0, -2, 0, 7, -2, -2, -2], "threshold": [-0.40324701368808746, 1.0001313984394073, -2.0, -2.0, -0.4894915670156479, -2.0, 0.7532885372638702, 0.2829756513237953, -2.0, -2.0, -2.0], "value": [[[0.5201938610662361, 0.4798061389337642], [0.12389380530973451, 0.8761061946902655], [0.0, 1.0], [0.5599999999999999, 0.43999999999999995], [0.748091603053435, 0.25190839694656486], [0.2028985507246377, 0.7971014492753623], [0.8641975308641975, 0.13580246913580246], [0.9581749049429658, 0.04182509505703422], [1.0, 0.0], [0.8641975308641975, 0.13580246913580246], [0.459016393442623, 0.5409836065573771]]]}, {"n_nodes": 11, "children_left": [1, 2, 3, 4, -1, -1, -1, -1, 9, -1, -1], "children_right": [8, 7, 6, 5, -1, -1, -1, -1, 10, -1, -1], "feature": [2, 6, 5, 2, -2, -2, -2, -2, 1, -2, -2], "threshold": [-0.17986516654491425, -0.28456321358680725, 0.6125294417142868, -0.8635969460010529, -2.0, -2.0, -2.0, -2.0, 1.4499210715293884, -2.0, -2.0], "value": [[[0.5401929260450163, 0.45980707395498405], [0.7453703703703705, 0.25462962962962965], [0.8166666666666667, 0.18333333333333332], [0.7338709677419355, 0.2661290322580645], [0.3888888888888889, 0.611111111111111], [0.8750000000000001, 0.125], [1.0, 0.0], [0.3888888888888889, 0.611111111111111], [0.0736842105263158, 0.9263157894736842], [0.0, 1.0], [0.2978723404255319, 0.7021276595744681]]]}, {"n_nodes": 9, "children_left": [1, 2, -1, 4, -1, -1, 7, -1, -1], "children_right": [6, 3, -1, 5, -1, -1, 8, -1, -1], "feature": [1, 6, -2, 0, -2, -2, 3, -2, -2], "threshold": [0.03570191049948335, -0.39006344974040985, -2.0, -0.4894915670156479, -2.0, -2.0, -0.75173020362854, -2.0, -2.0], "value": [[[0.6182965299684546, 0.3817034700315458], [0.8307692307692309, 0.16923076923076927], [1.0, 0.0], [0.4210526315789474, 0.5789473684210528], [0.0, 1.0], [0.717948717948718, 0.28205128205128205], [0.0782122905027933, 0.9217877094972067], [0.0, 1.0], [0.3888888888888889, 0.611111111111111]]]}, {"n_nodes": 11, "children_left": [1, -1, 3, 4, -1, -1, 7, 8, -1, -1, -1], "children_right": [2, -1, 6, 5, -1, -1, 10, 9, -1, -1, -1], "feature": [3, -2, 8, 8, -2, -2, 4, 10, -2, -2, -2], "threshold": [-0.7384949624538422, -2.0, -0.22847246006131172, -0.6733197569847107, -2.0, -2.0, 1.4144259691238403, -0.46853411197662354, -2.0, -2.0, -2.0], "value": [[[0.5201938610662361, 0.4798061389337642], [0.0, 1.0], [0.7092511013215861, 0.2907488986784141], [0.24137931034482757, 0.7586206896551724], [0.459016393442623, 0.5409836065573771], [0.0, 1.0], [0.8698224852071006, 0.13017751479289938], [0.9271523178807947, 0.07284768211920528], [0.5599999999999999, 0.43999999999999995], [1.0, 0.0], [0.3888888888888889, 0.611111111111111]]]}, {"n_nodes": 13, "children_left": [1, 2, -1, 4, 5, -1, -1, -1, 9, -1, 11, -1, -1], "children_right": [8, 3, -1, 7, 6, -1, -1, -1, 10, -1, 12, -1, -1], "feature": [2, 1, -2, 2, 9, -2, -2, -2, 3, -2, 9, -2, -2], "threshold": [-0.17986516654491425, -0.9518353343009949, -2.0, -0.5473419427871704, -0.4591100960969925, -2.0, -2.0, -2.0, -0.6778070032596588, -2.0, 0.4854074865579605, -2.0, -2.0], "value": [[[0.5600000000000003, 0.4400000000000001], [0.8541114058355438, 0.1458885941644562], [0.4590163934426229, 0.540983606557377], [0.930379746835443, 0.06962025316455694], [0.9581749049429656, 0.04182509505703421], [1.0, 0.0], [0.8842105263157893, 0.11578947368421051], [0.7924528301886792, 0.20754716981132074], [0.11290322580645161, 0.8870967741935484], [0.0, 1.0], [0.38888888888888884, 0.611111111111111], [0.717948717948718, 0.28205128205128205], [0.0, 1.0]]]}, {"n_nodes": 11, "children_left": [1, 2, 3, -1, -1, -1, 7, -1, 9, -1, -1], "children_right": [6, 5, 4, -1, -1, -1, 8, -1, 10, -1, -1], "feature": [6, 9, 4, -2, -2, -2, 7, -2, 11, -2, -2], "threshold": [-0.42355483770370483, 0.4777972847223282, -0.4337110221385956, -2.0, -2.0, -2.0, -1.1849885284900665, -2.0, -1.0110683143138885, -2.0, -2.0], "value": [[[0.5401929260450166, 0.45980707395498416], [0.8945686900958466, 0.10543130990415335], [1.0, 0.0], [1.0, 0.0], [1.0, 0.0], [0.5599999999999999, 0.44], [0.18122977346278318, 0.8187702265372168], [0.717948717948718, 0.28205128205128205], [0.10370370370370371, 0.8962962962962963], [0.38888888888888884, 0.611111111111111], [0.0, 1.0]]]}, {"n_nodes": 13, "children_left": [1, 2, 3, -1, -1, 6, -1, 8, -1, -1, 11, -1, -1], "children_right": [10, 5, 4, -1, -1, 7, -1, 9, -1, -1, 12, -1, -1], "feature": [1, 5, 7, -2, -2, 7, -2, 0, -2, -2, 6, -2, -2], "threshold": [0.385483093559742, -0.13760915398597717, -0.3719012141227722, -2.0, -2.0, -0.07703463733196259, -2.0, -0.029129698872566223, -2.0, -2.0, -0.37293748557567596, -2.0, -2.0], "value": [[[0.5401929260450163, 0.4598070739549841], [0.8070175438596492, 0.1929824561403509], [0.3373493975903614, 0.6626506024096385], [0.0, 1.0], [0.717948717948718, 0.28205128205128205], [0.930379746835443, 0.06962025316455694], [0.65625, 0.34375], [1.0, 0.0], [1.0, 0.0], [1.0, 0.0], [0.06278026905829596, 0.9372197309417041], [0.2413793103448276, 0.7586206896551725], [0.0, 1.0]]]}, {"n_nodes": 11, "children_left": [1, 2, -1, -1, 5, 6, -1, 8, -1, -1, -1], "children_right": [4, 3, -1, -1, 10, 7, -1, 9, -1, -1, -1], "feature": [3, 1, -2, -2, 6, 3, -2, 9, -2, -2, -2], "threshold": [-0.17519869655370712, 0.4157644286751747, -2.0, -2.0, -0.42750249803066254, 0.8590624332427979, -2.0, -0.4229649156332016, -2.0, -2.0, -2.0], "value": [[[0.5000000000000003, 0.5000000000000001], [0.10810810810810811, 0.8918918918918919], [0.5599999999999999, 0.43999999999999995], [0.0, 1.0], [0.7843137254901962, 0.21568627450980396], [0.9153846153846155, 0.08461538461538462], [1.0, 0.0], [0.7924528301886793, 0.20754716981132074], [0.3888888888888889, 0.611111111111111], [1.0, 0.0], [0.4329896907216495, 0.5670103092783505]]]}, {"n_nodes": 15, "children_left": [1, 2, 3, -1, 5, -1, -1, -1, 9, -1, 11, -1, 13, -1, -1], "children_right": [8, 7, 4, -1, 6, -1, -1, -1, 10, -1, 12, -1, 14, -1, -1], "feature": [4, 5, 7, -2, 0, -2, -2, -2, 11, -2, 9, -2, 8, -2, -2], "threshold": [0.27765707671642303, 0.5947097539901733, 0.10288405232131481, -2.0, -0.6114409118890762, -2.0, -2.0, -2.0, 0.22235947847366333, -2.0, -0.5226880609989166, -2.0, 0.3029849976301193, -2.0, -2.0], "value": [[[0.4590163934426232, 0.5409836065573772], [0.18791946308724833, 0.8120805369127516], [0.10810810810810811, 0.8918918918918919], [0.0, 1.0], [0.2413793103448276, 0.7586206896551725], [0.0, 1.0], [0.4590163934426229, 0.540983606557377], [0.717948717948718, 0.28205128205128205], [0.7179487179487178, 0.282051282051282], [0.4329896907216495, 0.5670103092783505], [0.8465116279069768, 0.15348837209302324], [0.3888888888888889, 0.611111111111111], [0.9385474860335196, 0.06145251396648045], [0.7924528301886792, 0.20754716981132074], [1.0, 0.0]]]}, {"n_nodes": 11, "children_left": [1, 2, -1, 4, 5, -1, -1, -1, 9, -1, -1], "children_right": [8, 3, -1, 7, 6, -1, -1, -1, 10, -1, -1], "feature": [1, 0, -2, 6, 3, -2, -2, -2, 3, -2, -2], "threshold": [-0.21817979961633682, -0.5051804780960083, -2.0, -0.35502904653549194, 1.27572762966156, -2.0, -2.0, -2.0, -0.26422854512929916, -2.0, -2.0], "value": [[[0.5796178343949048, 0.4203821656050957], [0.8135593220338985, 0.18644067796610173], [0.24137931034482757, 0.7586206896551723], [0.9070422535211268, 0.09295774647887324], [0.9621993127147767, 0.037800687285223365], [1.0, 0.0], [0.835820895522388, 0.16417910447761191], [0.6562499999999999, 0.34374999999999994], [0.1302325581395349, 0.8697674418604652], [0.0, 1.0], [0.4590163934426229, 0.540983606557377]]]}, {"n_nodes": 7, "children_left": [1, 2, -1, -1, 5, -1, -1], "children_right": [4, 3, -1, -1, 6, -1, -1], "feature": [5, 5, -2, -2, 3, -2, -2], "threshold": [-0.010663270950317383, -0.503852978348732, -2.0, -2.0, -0.7384949624538422, -2.0, -2.0], "value": [[[0.5201938610662361, 0.4798061389337643], [0.15384615384615385, 0.8461538461538461], [0.0, 1.0], [0.3529411764705882, 0.6470588235294118], [0.8092485549132948, 0.1907514450867052], [0.0, 1.0], [1.0, 0.0]]]}, {"n_nodes": 11, "children_left": [1, 2, 3, -1, -1, 6, -1, -1, 9, -1, -1], "children_right": [8, 5, 4, -1, -1, 7, -1, -1, 10, -1, -1], "feature": [1, 5, 10, -2, -2, 11, -2, -2, 0, -2, -2], "threshold": [0.3847595229744911, -0.0479492899030447, 0.1380709931254387, -2.0, -2.0, 0.9314491748809814, -2.0, -2.0, 0.6161496937274933, -2.0, -2.0], "value": [[[0.5990491283676708, 0.40095087163232973], [0.7679324894514769, 0.2320675105485232], [0.3230769230769231, 0.676923076923077], [0.0, 1.0], [0.7924528301886792, 0.20754716981132074], [0.936046511627907, 0.06395348837209303], [1.0, 0.0], [0.5599999999999999, 0.43999999999999995], [0.089171974522293, 0.910828025477707], [0.0, 1.0], [0.2413793103448276, 0.7586206896551725]]]}, {"n_nodes": 13, "children_left": [1, 2, -1, -1, 5, 6, -1, 8, -1, -1, 11, -1, -1], "children_right": [4, 3, -1, -1, 10, 7, -1, 9, -1, -1, 12, -1, -1], "feature": [0, 6, -2, -2, 6, 9, -2, 0, -2, -2, 3, -2, -2], "threshold": [-0.3554326295852661, 0.007872868329286575, -2.0, -2.0, -0.42355483770370483, -0.441338375210762, -2.0, 0.15115873515605927, -2.0, -2.0, 0.41378411650657654, -2.0, -2.0], "value": [[[0.37458193979933135, 0.6254180602006691], [0.05982905982905983, 0.9401709401709402], [0.0, 1.0], [0.15384615384615385, 0.8461538461538461], [0.576923076923077, 0.4230769230769231], [0.8465116279069766, 0.15348837209302324], [0.4590163934426229, 0.540983606557377], [1.0, 0.0], [1.0, 0.0], [1.0, 0.0], [0.18791946308724836, 0.8120805369127517], [0.0, 1.0], [0.5599999999999999, 0.43999999999999995]]]}, {"n_nodes": 7, "children_left": [1, -1, 3, 4, -1, -1, -1], "children_right": [2, -1, 6, 5, -1, -1, -1], "feature": [3, -2, 6, 2, -2, -2, -2], "threshold": [-0.40324701368808746, -2.0, -0.42966921627521515, -0.8678221106529236, -2.0, -2.0, -2.0], "value": [[[0.45901639344262324, 0.5409836065573772], [0.0, 1.0], [0.7387862796833773, 0.26121372031662266], [0.9271523178807948, 0.0728476821192053], [0.7608695652173912, 0.2391304347826087], [1.0, 0.0], [0.0, 1.0]]]}, {"n_nodes": 13, "children_left": [1, -1, 3, 4, 5, -1, -1, 8, -1, -1, 11, -1, -1], "children_right": [2, -1, 10, 7, 6, -1, -1, 9, -1, -1, 12, -1, -1], "feature": [3, -2, 6, 8, 1, -2, -2, 10, -2, -2, 4, -2, -2], "threshold": [-0.7093698978424072, -2.0, -0.39006344974040985, -0.13756362721323967, -0.6431179493665695, -2.0, -2.0, -0.33656421303749084, -2.0, -2.0, 0.12912338227033615, -2.0, -2.0], "value": [[[0.43822075782537095, 0.5617792421746295], [0.0, 1.0], [0.6171693735498842, 0.3828306264501161], [0.8208469055374593, 0.17915309446254069], [0.5599999999999999, 0.43999999999999995], [0.65625, 0.34375], [0.3888888888888889, 0.611111111111111], [0.9468599033816426, 0.05314009661835749], [0.7924528301886792, 0.20754716981132074], [1.0, 0.0], [0.1129032258064516, 0.8870967741935484], [0.0, 1.0], [0.29787234042553196, 0.7021276595744681]]]}, {"n_nodes": 11, "children_left": [1, 2, -1, 4, 5, -1, -1, -1, 9, -1, -1], "children_right": [8, 3, -1, 7, 6, -1, -1, -1, 10, -1, -1], "feature": [4, 7, -2, 9, 6, -2, -2, -2, 8, -2, -2], "threshold": [0.759492963552475, 0.10288405232131481, -2.0, 0.5062455981969833, -0.41322585940361023, -2.0, -2.0, -2.0, 0.6395337283611298, -2.0, -2.0], "value": [[[0.5401929260450162, 0.45980707395498394], [0.388888888888889, 0.6111111111111112], [0.0, 1.0], [0.5833333333333334, 0.41666666666666674], [0.7777777777777777, 0.22222222222222215], [1.0, 0.0], [0.38888888888888884, 0.611111111111111], [0.0, 1.0], [0.8053097345132744, 0.19469026548672566], [0.48837209302325585, 0.5116279069767442], [1.0, 0.0]]]}, {"n_nodes": 9, "children_left": [1, 2, 3, -1, -1, -1, 7, -1, -1], "children_right": [6, 5, 4, -1, -1, -1, 8, -1, -1], "feature": [2, 9, 11, -2, -2, -2, 0, -2, -2], "threshold": [-0.17986516654491425, -0.441338375210762, 0.16472139209508896, -2.0, -2.0, -2.0, 0.6161496937274933, -2.0, -2.0], "value": [[[0.6182965299684545, 0.38170347003154587], [0.8687350835322196, 0.13126491646778043], [0.4329896907216494, 0.5670103092783504], [0.7924528301886792, 0.20754716981132074], [0.0, 1.0], [1.0, 0.0], [0.13023255813953488, 0.8697674418604651], [0.0, 1.0], [0.38888888888888884, 0.611111111111111]]]}, {"n_nodes": 13, "children_left": [1, 2, 3, 4, -1, -1, 7, -1, -1, -1, 11, -1, -1], "children_right": [10, 9, 6, 5, -1, -1, 8, -1, -1, -1, 12, -1, -1], "feature": [1, 2, 11, 0, -2, -2, 3, -2, -2, -2, 8, -2, -2], "threshold": [0.3930058255791664, -0.14887245744466782, 0.5885848999023438, -0.08376257121562958, -2.0, -2.0, 0.4753013253211975, -2.0, -2.0, -2.0, -1.3213174939155579, -2.0, -2.0], "value": [[[0.520193861066236, 0.4798061389337641], [0.6924731182795701, 0.3075268817204302], [0.7924528301886793, 0.20754716981132074], [0.9197080291970804, 0.08029197080291971], [0.8166666666666667, 0.18333333333333332], [1.0, 0.0], [0.43298969072164945, 0.5670103092783505], [0.717948717948718, 0.28205128205128205], [0.2413793103448276, 0.7586206896551725], [0.2978723404255319, 0.7021276595744681], [0.0, 1.0], [0.0, 1.0], [0.0, 1.0]]]}, {"n_nodes": 13, "children_left": [1, -1, 3, 4, -1, 6, -1, -1, 9, -1, 11, -1, -1], "children_right": [2, -1, 8, 5, -1, 7, -1, -1, 10, -1, 12, -1, -1], "feature": [3, -2, 5, 0, -2, 6, -2, -2, 1, -2, 0, -2, -2], "threshold": [-0.6778070032596588, -2.0, -0.11663571745157242, 0.28886324912309647, -2.0, -0.35502904653549194, -2.0, -2.0, -0.8201216459274292, -2.0, -0.18013441562652588, -2.0, -2.0], "value": [[[0.5000000000000003, 0.5000000000000001], [0.0, 1.0], [0.7368421052631581, 0.2631578947368422], [0.3230769230769231, 0.676923076923077], [0.0, 1.0], [0.5599999999999999, 0.44], [1.0, 0.0], [0.0, 1.0], [0.923611111111111, 0.07638888888888888], [0.6562499999999999, 0.34374999999999994], [1.0, 0.0], [1.0, 0.0], [1.0, 0.0]]]}, {"n_nodes": 11, "children_left": [1, 2, 3, 4, -1, -1, -1, -1, 9, -1, -1], "children_right": [8, 7, 6, 5, -1, -1, -1, -1, 10, -1, -1], "feature": [1, 3, 9, 8, -2, -2, -2, -2, 0, -2, -2], "threshold": [0.03570191049948335, 0.9696065783500671, -0.4411933422088623, 0.12185899168252945, -2.0, -2.0, -2.0, -2.0, 0.6161496937274933, -2.0, -2.0], "value": [[[0.3960066555740435, 0.603993344425957], [0.6492753623188406, 0.3507246376811594], [0.4474885844748859, 0.5525114155251142], [0.11290322580645161, 0.8870967741935484], [0.0, 1.0], [0.3888888888888889, 0.611111111111111], [0.8842105263157894, 0.11578947368421053], [1.0, 0.0], [0.054687500000000014, 0.9453125], [0.0, 1.0], [0.175, 0.825]]]}, {"n_nodes": 11, "children_left": [1, 2, 3, -1, -1, 6, -1, -1, 9, -1, -1], "children_right": [8, 5, 4, -1, -1, 7, -1, -1, 10, -1, -1], "feature": [1, 8, 10, -2, -2, 10, -2, -2, 2, -2, -2], "threshold": [0.3930058255791664, -0.18687297590076923, 0.36113935708999634, -2.0, -2.0, -0.5429074466228485, -2.0, -2.0, 0.89766064286232, -2.0, -2.0], "value": [[[0.5600000000000003, 0.44000000000000006], [0.7990867579908677, 0.20091324200913244], [0.4210526315789474, 0.5789473684210528], [0.5599999999999999, 0.43999999999999995], [0.3373493975903614, 0.6626506024096385], [0.9639344262295082, 0.0360655737704918], [0.8641975308641975, 0.13580246913580246], [1.0, 0.0], [0.0, 1.0], [0.0, 1.0], [0.0, 1.0]]]}, {"n_nodes": 11, "children_left": [1, 2, 3, 4, -1, -1, -1, -1, 9, -1, -1], "children_right": [8, 7, 6, 5, -1, -1, -1, -1, 10, -1, -1], "feature": [2, 8, 6, 5, -2, -2, -2, -2, 0, -2, -2], "threshold": [-0.14887245744466782, 0.4934551417827606, -0.3992117643356323, 0.05244188569486141, -2.0, -2.0, -2.0, -2.0, 0.6161496937274933, -2.0, -2.0], "value": [[[0.5600000000000002, 0.44000000000000006], [0.7648456057007126, 0.23515439429928742], [0.6086956521739131, 0.3913043478260869], [0.7777777777777778, 0.2222222222222222], [0.8990825688073393, 0.10091743119266054], [0.6292134831460674, 0.3707865168539326], [0.0, 1.0], [1.0, 0.0], [0.13725490196078433, 0.8627450980392156], [0.0, 1.0], [0.5599999999999999, 0.43999999999999995]]]}, {"n_nodes": 11, "children_left": [1, 2, -1, 4, 5, -1, -1, -1, 9, -1, -1], "children_right": [8, 3, -1, 7, 6, -1, -1, -1, 10, -1, -1], "feature": [2, 1, -2, 11, 5, -2, -2, -2, 0, -2, -2], "threshold": [-0.14887245744466782, -1.1192810535430908, -2.0, 0.616636335849762, -0.07534156180918217, -2.0, -2.0, -2.0, -1.5268760919570923, -2.0, -2.0], "value": [[[0.4796084828711259, 0.5203915171288744], [0.748091603053435, 0.25190839694656486], [0.0, 1.0], [0.8990825688073394, 0.10091743119266054], [1.0, 0.0], [1.0, 0.0], [1.0, 0.0], [0.5599999999999999, 0.44], [0.0, 1.0], [0.0, 1.0], [0.0, 1.0]]]}, {"n_nodes": 17, "children_left": [1, 2, 3, -1, -1, -1, 7, 8, -1, 10, -1, -1, 13, -1, 15, -1, -1], "children_right": [6, 5, 4, -1, -1, -1, 12, 9, -1, 11, -1, -1, 14, -1, 16, -1, -1], "feature": [9, 0, 2, -2, -2, -2, 6, 4, -2, 8, -2, -2, 4, -2, 7, -2, -2], "threshold": [-0.43721505999565125, 1.1323027610778809, -0.5179655998945236, -2.0, -2.0, -2.0, -0.43086110055446625, -0.6282877326011658, -2.0, 0.2529837489128113, -2.0, -2.0, -0.13756681233644485, -2.0, 0.48137545585632324, -2.0, -2.0], "value": [[[0.5401929260450163, 0.4598070739549841], [0.2413793103448276, 0.7586206896551725], [0.0782122905027933, 0.9217877094972067], [0.2978723404255319, 0.7021276595744681], [0.0, 1.0], [0.7924528301886792, 0.20754716981132074], [0.7179487179487181, 0.2820512820512821], [0.9502262443438912, 0.04977375565610859], [0.7924528301886792, 0.20754716981132074], [1.0, 0.0], [1.0, 0.0], [1.0, 0.0], [0.4142011834319527, 0.5857988165680474], [0.0, 1.0], [0.6140350877192984, 0.3859649122807018], [1.0, 0.0], [0.0, 1.0]]]}, {"n_nodes": 13, "children_left": [1, 2, 3, 4, -1, -1, -1, -1, 9, -1, 11, -1, -1], "children_right": [8, 7, 6, 5, -1, -1, -1, -1, 10, -1, 12, -1, -1], "feature": [2, 8, 3, 2, -2, -2, -2, -2, 7, -2, 3, -2, -2], "threshold": [-0.2041255310177803, 0.5908879637718201, 0.9997172951698303, -0.8860496878623962, -2.0, -2.0, -2.0, -2.0, 0.2603715881705284, -2.0, -0.6778070032596588, -2.0, -2.0], "value": [[[0.41721854304635786, 0.5827814569536426], [0.5599999999999999, 0.43999999999999995], [0.4066390041493776, 0.5933609958506223], [0.22702702702702704, 0.7729729729729731], [0.459016393442623, 0.5409836065573771], [0.11290322580645161, 0.8870967741935484], [1.0, 0.0], [1.0, 0.0], [0.2508960573476703, 0.7491039426523299], [0.0, 1.0], [0.4430379746835443, 0.5569620253164558], [0.0, 1.0], [0.7608695652173912, 0.2391304347826087]]]}, {"n_nodes": 13, "children_left": [1, 2, -1, 4, 5, -1, -1, 8, -1, -1, 11, -1, -1], "children_right": [10, 3, -1, 7, 6, -1, -1, 9, -1, -1, 12, -1, -1], "feature": [4, 10, -2, 6, 10, -2, -2, 5, -2, -2, 5, -2, -2], "threshold": [0.27765707671642303, -0.5800179839134216, -2.0, -0.4289410561323166, -0.12878606654703617, -2.0, -2.0, 0.18723000586032867, -2.0, -2.0, 0.6209155768156052, -2.0, -2.0], "value": [[[0.4590163934426233, 0.5409836065573773], [0.3333333333333333, 0.6666666666666664], [0.0, 1.0], [0.48275862068965525, 0.5172413793103449], [0.9271523178807947, 0.07284768211920528], [0.717948717948718, 0.28205128205128205], [1.0, 0.0], [0.08333333333333333, 0.9166666666666666], [0.0, 1.0], [0.3888888888888889, 0.611111111111111], [0.8513513513513514, 0.14864864864864866], [0.6562499999999999, 0.34374999999999994], [1.0, 0.0]]]}, {"n_nodes": 13, "children_left": [1, 2, 3, -1, 5, -1, -1, 8, -1, -1, 11, -1, -1], "children_right": [10, 7, 4, -1, 6, -1, -1, 9, -1, -1, 12, -1, -1], "feature": [1, 5, 9, -2, 6, -2, -2, 0, -2, -2, 0, -2, -2], "threshold": [0.3847595229744911, -0.0479492899030447, -0.616099625825882, -2.0, -0.3928849995136261, -2.0, -2.0, -0.6078594475984573, -2.0, -2.0, 0.3585385661572218, -2.0, -2.0], "value": [[[0.5600000000000003, 0.4400000000000001], [0.72686230248307, 0.27313769751693], [0.2978723404255319, 0.7021276595744681], [0.717948717948718, 0.28205128205128205], [0.1372549019607843, 0.8627450980392156], [0.3888888888888889, 0.611111111111111], [0.0, 1.0], [0.9271523178807948, 0.0728476821192053], [0.65625, 0.34375], [1.0, 0.0], [0.15384615384615388, 0.8461538461538463], [0.0, 1.0], [0.459016393442623, 0.5409836065573771]]]}, {"n_nodes": 15, "children_left": [1, 2, 3, -1, -1, 6, 7, -1, -1, 10, -1, -1, 13, -1, -1], "children_right": [12, 5, 4, -1, -1, 9, 8, -1, -1, 11, -1, -1, 14, -1, -1], "feature": [1, 5, 9, -2, -2, 7, 8, -2, -2, 8, -2, -2, 6, -2, -2], "threshold": [0.2763363332487643, 0.018291495740413666, -0.616099625825882, -2.0, -2.0, 0.2633172646164894, 0.4934551417827606, -2.0, -2.0, 0.3029849976301193, -2.0, -2.0, -0.39488285779953003, -2.0, -2.0], "value": [[[0.47960848287112595, 0.5203915171288747], [0.7084337349397591, 0.29156626506024097], [0.2978723404255319, 0.7021276595744681], [0.6562499999999999, 0.34374999999999994], [0.0, 1.0], [0.9197080291970802, 0.0802919708029197], [0.8166666666666667, 0.18333333333333332], [0.6562499999999999, 0.34374999999999994], [1.0, 0.0], [1.0, 0.0], [1.0, 0.0], [1.0, 0.0], [0.0, 1.0], [0.0, 1.0], [0.0, 1.0]]]}, {"n_nodes": 17, "children_left": [1, 2, -1, 4, 5, -1, -1, 8, -1, -1, 11, 12, -1, -1, 15, -1, -1], "children_right": [10, 3, -1, 7, 6, -1, -1, 9, -1, -1, 14, 13, -1, -1, 16, -1, -1], "feature": [2, 10, -2, 5, 5, -2, -2, 2, -2, -2, 2, 3, -2, -2, 2, -2, -2], "threshold": [-0.17986516654491425, -0.6299613416194916, -2.0, 0.16671281307935715, -0.25566814839839935, -2.0, -2.0, -0.8153943717479706, -2.0, -2.0, 0.8611907064914703, -0.6778070032596588, -2.0, -2.0, 1.3415200114250183, -2.0, -2.0], "value": [[[0.5796178343949048, 0.42038216560509567], [0.7924528301886793, 0.20754716981132074], [0.2028985507246377, 0.7971014492753623], [0.9070422535211267, 0.09295774647887323], [0.7724137931034483, 0.22758620689655173], [0.8842105263157893, 0.11578947368421051], [0.5599999999999999, 0.43999999999999995], [1.0, 0.0], [1.0, 0.0], [1.0, 0.0], [0.1372549019607843, 0.8627450980392156], [0.26666666666666666, 0.7333333333333334], [0.0, 1.0], [0.717948717948718, 0.28205128205128205], [0.0, 1.0], [0.0, 1.0], [0.0, 1.0]]]}, {"n_nodes": 11, "children_left": [1, -1, 3, 4, 5, -1, -1, -1, 9, -1, -1], "children_right": [2, -1, 8, 7, 6, -1, -1, -1, 10, -1, -1], "feature": [0, -2, 6, 7, 0, -2, -2, -2, 1, -2, -2], "threshold": [-0.3554326295852661, -2.0, -0.4306860566139221, 0.4151948541402817, 0.27545294910669327, -2.0, -2.0, -2.0, 0.03570191049948335, -2.0, -2.0], "value": [[[0.4172185430463578, 0.5827814569536426], [0.0, 1.0], [0.533898305084746, 0.4661016949152544], [0.7480916030534351, 0.2519083969465649], [0.65625, 0.34375], [0.8641975308641975, 0.13580246913580246], [0.5045045045045046, 0.4954954954954955], [1.0, 0.0], [0.26666666666666666, 0.7333333333333333], [0.835820895522388, 0.16417910447761191], [0.0, 1.0]]]}, {"n_nodes": 11, "children_left": [1, 2, 3, -1, -1, 6, -1, -1, 9, -1, -1], "children_right": [8, 5, 4, -1, -1, 7, -1, -1, 10, -1, -1], "feature": [2, 9, 9, -2, -2, 10, -2, -2, 10, -2, -2], "threshold": [-0.17986516654491425, -0.40998420119285583, -0.605516642332077, -2.0, -2.0, -0.10806689597666264, -2.0, -2.0, -1.3117035627365112, -2.0, -2.0], "value": [[[0.3310810810810813, 0.6689189189189192], [0.6405228758169936, 0.35947712418300654], [0.2028985507246377, 0.7971014492753624], [0.4590163934426229, 0.540983606557377], [0.0, 1.0], [1.0, 0.0], [1.0, 0.0], [1.0, 0.0], [0.0, 1.0], [0.0, 1.0], [0.0, 1.0]]]}, {"n_nodes": 13, "children_left": [1, 2, -1, -1, 5, -1, 7, 8, -1, -1, 11, -1, -1], "children_right": [4, 3, -1, -1, 6, -1, 10, 9, -1, -1, 12, -1, -1], "feature": [10, 8, -2, -2, 3, -2, 7, 1, -2, -2, 1, -2, -2], "threshold": [-0.5319880247116089, 0.13703130185604095, -2.0, -2.0, -0.6778070032596588, -2.0, -0.0909414067864418, -0.6097356379032135, -2.0, -2.0, -0.8201216459274292, -2.0, -2.0], "value": [[[0.5201938610662362, 0.47980613893376434], [0.1037037037037037, 0.8962962962962961], [0.0, 1.0], [0.2978723404255319, 0.7021276595744681], [0.6363636363636365, 0.36363636363636365], [0.0, 1.0], [0.8, 0.2], [0.5045045045045046, 0.4954954954954955], [0.7924528301886792, 0.20754716981132074], [0.2413793103448276, 0.7586206896551725], [0.9197080291970802, 0.0802919708029197], [0.717948717948718, 0.28205128205128205], [0.9531914893617022, 0.04680851063829787]]]}, {"n_nodes": 13, "children_left": [1, 2, 3, -1, -1, 6, -1, -1, 9, 10, -1, -1, -1], "children_right": [8, 5, 4, -1, -1, 7, -1, -1, 12, 11, -1, -1, -1], "feature": [10, 5, 3, -2, -2, 8, -2, -2, 6, 7, -2, -2, -2], "threshold": [0.1380709931254387, 0.5119380056858063, 0.9997172951698303, -2.0, -2.0, 0.936989814043045, -2.0, -2.0, -0.4306860566139221, 0.3498178571462631, -2.0, -2.0, -2.0], "value": [[[0.5201938610662361, 0.47980613893376434], [0.368421052631579, 0.631578947368421], [0.10810810810810811, 0.8918918918918919], [0.0, 1.0], [0.4590163934426229, 0.540983606557377], [0.7924528301886793, 0.20754716981132076], [1.0, 0.0], [0.29787234042553196, 0.7021276595744681], [0.8358208955223879, 0.16417910447761194], [1.0, 0.0], [1.0, 0.0], [1.0, 0.0], [0.5599999999999999, 0.44]]]}, {"n_nodes": 9, "children_left": [1, -1, 3, 4, -1, -1, 7, -1, -1], "children_right": [2, -1, 6, 5, -1, -1, 8, -1, -1], "feature": [3, -2, 6, 10, -2, -2, 8, -2, -2], "threshold": [-0.7093698978424072, -2.0, -0.42355483770370483, -0.33656421303749084, -2.0, -2.0, 0.11235495284199715, -2.0, -2.0], "value": [[[0.5401929260450165, 0.45980707395498405], [0.0, 1.0], [0.6857142857142858, 0.31428571428571433], [0.9032258064516129, 0.09677419354838708], [0.717948717948718, 0.28205128205128205], [1.0, 0.0], [0.18791946308724833, 0.8120805369127517], [0.0, 1.0], [0.717948717948718, 0.28205128205128205]]]}, {"n_nodes": 9, "children_left": [1, 2, -1, 4, -1, -1, 7, -1, -1], "children_right": [6, 3, -1, 5, -1, -1, 8, -1, -1], "feature": [1, 10, -2, 5, -2, -2, 1, -2, -2], "threshold": [-0.21817979961633682, -0.6843221187591553, -2.0, -0.13760915398597717, -2.0, -2.0, 0.3847595229744911, -2.0, -2.0], "value": [[[0.5600000000000004, 0.44000000000000017], [0.8135593220338985, 0.1864406779661017], [0.0, 1.0], [0.9105691056910569, 0.08943089430894308], [0.4590163934426229, 0.540983606557377], [1.0, 0.0], [0.06603773584905662, 0.9339622641509435], [0.3888888888888889, 0.611111111111111], [0.0, 1.0]]]}, {"n_nodes": 11, "children_left": [1, 2, -1, -1, 5, -1, 7, -1, 9, -1, -1], "children_right": [4, 3, -1, -1, 6, -1, 8, -1, 10, -1, -1], "feature": [5, 6, -2, -2, 3, -2, 4, -2, 8, -2, -2], "threshold": [0.022262077778577805, -0.42966921627521515, -2.0, -2.0, -0.6778070032596588, -2.0, -0.040851738303899765, -2.0, 0.4934551417827606, -2.0, -2.0], "value": [[[0.43822075782537095, 0.5617792421746295], [0.16030534351145037, 0.8396946564885496], [0.6562499999999999, 0.34374999999999994], [0.0, 1.0], [0.6492753623188406, 0.3507246376811594], [0.0, 1.0], [0.8028673835125448, 0.19713261648745517], [1.0, 0.0], [0.6405228758169933, 0.3594771241830064], [0.3373493975903614, 0.6626506024096385], [1.0, 0.0]]]}, {"n_nodes": 13, "children_left": [1, 2, -1, -1, 5, 6, 7, -1, -1, -1, 11, -1, -1], "children_right": [4, 3, -1, -1, 10, 9, 8, -1, -1, -1, 12, -1, -1], "feature": [8, 7, -2, -2, 2, 4, 9, -2, -2, -2, 4, -2, -2], "threshold": [-0.4451611787080765, -0.043113524094223976, -2.0, -2.0, -0.144539937376976, 1.4144259691238403, -0.5682520717382431, -2.0, -2.0, -2.0, -0.9483460038900375, -2.0, -2.0], "value": [[[0.5000000000000002, 0.5000000000000001], [0.07368421052631578, 0.9263157894736842], [0.0, 1.0], [0.2028985507246377, 0.7971014492753623], [0.6901408450704225, 0.30985915492957744], [0.8286604361370716, 0.17133956386292834], [0.9197080291970804, 0.08029197080291971], [0.5599999999999999, 0.43999999999999995], [1.0, 0.0], [0.29787234042553196, 0.7021276595744681], [0.26666666666666666, 0.7333333333333334], [0.5599999999999999, 0.43999999999999995], [0.0, 1.0]]]}, {"n_nodes": 9, "children_left": [1, -1, 3, 4, 5, -1, -1, -1, -1], "children_right": [2, -1, 8, 7, 6, -1, -1, -1, -1], "feature": [3, -2, 5, 6, 7, -2, -2, -2, -2], "threshold": [-0.6778070032596588, -2.0, 0.49328823387622833, -0.3992117643356323, 0.20790214836597443, -2.0, -2.0, -2.0, -2.0], "value": [[[0.5000000000000002, 0.5000000000000001], [0.0, 1.0], [0.7179487179487183, 0.28205128205128216], [0.48068669527897, 0.51931330472103], [0.717948717948718, 0.28205128205128205], [0.8990825688073393, 0.10091743119266054], [0.2978723404255319, 0.7021276595744681], [0.0, 1.0], [1.0, 0.0]]]}, {"n_nodes": 11, "children_left": [1, 2, 3, 4, -1, -1, -1, -1, 9, -1, -1], "children_right": [8, 7, 6, 5, -1, -1, -1, -1, 10, -1, -1], "feature": [2, 1, 2, 8, -2, -2, -2, -2, 10, -2, -2], "threshold": [-0.17986516654491425, -0.6175926923751831, -0.6874459087848663, -0.13756362721323967, -2.0, -2.0, -2.0, -2.0, -1.2732197046279907, -2.0, -2.0], "value": [[[0.41721854304635786, 0.5827814569536426], [0.7411764705882353, 0.25882352941176473], [0.835820895522388, 0.16417910447761191], [0.6901408450704225, 0.30985915492957744], [0.3888888888888889, 0.611111111111111], [1.0, 0.0], [1.0, 0.0], [0.38888888888888884, 0.611111111111111], [0.0, 1.0], [0.0, 1.0], [0.0, 1.0]]]}, {"n_nodes": 9, "children_left": [1, 2, -1, -1, 5, 6, -1, -1, -1], "children_right": [4, 3, -1, -1, 8, 7, -1, -1, -1], "feature": [1, 7, -2, -2, 1, 8, -2, -2, -2], "threshold": [-0.5919933915138245, -0.25114960223436356, -2.0, -2.0, 0.3847595229744911, -0.1315162181854248, -2.0, -2.0, -2.0], "value": [[[0.43822075782537107, 0.5617792421746297], [0.9502262443438915, 0.0497737556561086], [0.7924528301886792, 0.20754716981132074], [1.0, 0.0], [0.1450777202072539, 0.8549222797927463], [0.3163841807909605, 0.6836158192090395], [0.13725490196078433, 0.8627450980392157], [0.5599999999999999, 0.44], [0.0, 1.0]]]}, {"n_nodes": 11, "children_left": [1, -1, 3, 4, -1, 6, -1, -1, 9, -1, -1], "children_right": [2, -1, 8, 5, -1, 7, -1, -1, 10, -1, -1], "feature": [8, -2, 2, 5, -2, 9, -2, -2, 8, -2, -2], "threshold": [-0.40201763808727264, -2.0, -0.13605083152651787, -0.13760915398597717, -2.0, -0.4525135010480881, -2.0, -2.0, 0.999909907579422, -2.0, -2.0], "value": [[[0.41721854304635797, 0.5827814569536427], [0.0, 1.0], [0.60431654676259, 0.39568345323741005], [0.8782287822878229, 0.12177121771217711], [0.5599999999999999, 0.43999999999999995], [0.9502262443438912, 0.04977375565610859], [0.717948717948718, 0.28205128205128205], [1.0, 0.0], [0.0958904109589041, 0.9041095890410958], [0.0, 1.0], [0.2978723404255319, 0.7021276595744681]]]}, {"n_nodes": 9, "children_left": [1, 2, -1, -1, 5, 6, -1, -1, -1], "children_right": [4, 3, -1, -1, 8, 7, -1, -1, -1], "feature": [8, 6, -2, -2, 2, 2, -2, -2, -2], "threshold": [-0.04837658070027828, -0.4289410561323166, -2.0, -2.0, 0.4673195034265518, -0.2535630390048027, -2.0, -2.0, -2.0], "value": [[[0.5000000000000003, 0.5000000000000002], [0.1603053435114504, 0.8396946564885497], [0.6562499999999999, 0.34374999999999994], [0.0, 1.0], [0.7514124293785311, 0.2485875706214689], [0.9602888086642599, 0.03971119133574007], [1.0, 0.0], [0.717948717948718, 0.28205128205128205], [0.0, 1.0]]]}, {"n_nodes": 11, "children_left": [1, 2, 3, -1, -1, -1, 7, -1, 9, -1, -1], "children_right": [6, 5, 4, -1, -1, -1, 8, -1, 10, -1, -1], "feature": [2, 9, 2, -2, -2, -2, 10, -2, 8, -2, -2], "threshold": [-0.17313282191753387, -0.4411933422088623, -0.7286934554576874, -2.0, -2.0, -2.0, -0.44786669313907623, -2.0, -0.41496415436267853, -2.0, -2.0], "value": [[[0.5401929260450163, 0.459807073954984], [0.8, 0.2], [0.5925925925925926, 0.4074074074074074], [0.29787234042553196, 0.7021276595744681], [0.8842105263157893, 0.11578947368421051], [1.0, 0.0], [0.11814345991561181, 0.8818565400843882], [0.0, 1.0], [0.2028985507246377, 0.7971014492753623], [0.3888888888888889, 0.611111111111111], [0.13725490196078433, 0.8627450980392157]]]}, {"n_nodes": 9, "children_left": [1, -1, 3, 4, -1, 6, -1, -1, -1], "children_right": [2, -1, 8, 5, -1, 7, -1, -1, -1], "feature": [10, -2, 8, 0, -2, 6, -2, -2, -2], "threshold": [-0.6299613416194916, -2.0, 0.6093537509441376, -0.15243353694677353, -2.0, -0.35502904653549194, -2.0, -2.0, -2.0], "value": [[[0.4796084828711259, 0.5203915171288745], [0.0, 1.0], [0.6405228758169935, 0.35947712418300665], [0.4827586206896552, 0.5172413793103449], [0.8641975308641974, 0.13580246913580246], [0.3529411764705882, 0.6470588235294118], [0.48837209302325585, 0.5116279069767442], [0.0, 1.0], [1.0, 0.0]]]}, {"n_nodes": 11, "children_left": [1, 2, -1, -1, 5, 6, -1, 8, -1, -1, -1], "children_right": [4, 3, -1, -1, 10, 7, -1, 9, -1, -1, -1], "feature": [4, 11, -2, -2, 8, 10, -2, 6, -2, -2, -2], "threshold": [-0.3854777216911316, 0.25487280171364546, -2.0, -2.0, 0.6395337283611298, 0.1380709931254387, -2.0, -0.43046844005584717, -2.0, -2.0, -2.0], "value": [[[0.3745819397993313, 0.625418060200669], [0.05982905982905983, 0.9401709401709402], [0.0, 1.0], [0.2028985507246377, 0.7971014492753623], [0.576923076923077, 0.42307692307692324], [0.38888888888888895, 0.6111111111111112], [0.0, 1.0], [0.6405228758169934, 0.3594771241830065], [0.7608695652173912, 0.2391304347826087], [0.4590163934426229, 0.540983606557377], [1.0, 0.0]]]}, {"n_nodes": 13, "children_left": [1, 2, -1, 4, 5, -1, -1, 8, -1, -1, 11, -1, -1], "children_right": [10, 3, -1, 7, 6, -1, -1, 9, -1, -1, 12, -1, -1], "feature": [1, 10, -2, 6, 7, -2, -2, 6, -2, -2, 5, -2, -2], "threshold": [0.3930058255791664, -0.6194290816783905, -2.0, -0.45261208713054657, 0.4009953886270523, -2.0, -2.0, -0.42355483770370483, -2.0, -2.0, -0.28329915553331375, -2.0, -2.0], "value": [[[0.5600000000000003, 0.4400000000000001], [0.7179487179487181, 0.28205128205128205], [0.2978723404255319, 0.7021276595744681], [0.823529411764706, 0.17647058823529413], [0.6562499999999999, 0.34374999999999994], [0.2413793103448276, 0.7586206896551725], [1.0, 0.0], [0.9105691056910568, 0.08943089430894308], [1.0, 0.0], [0.7924528301886793, 0.20754716981132074], [0.089171974522293, 0.910828025477707], [0.2028985507246377, 0.7971014492753623], [0.0, 1.0]]]}, {"n_nodes": 9, "children_left": [1, 2, -1, -1, 5, 6, -1, -1, -1], "children_right": [4, 3, -1, -1, 8, 7, -1, -1, -1], "feature": [6, 1, -2, -2, 8, 9, -2, -2, -2], "threshold": [-0.43086110055446625, -0.6175926923751831, -2.0, -2.0, 0.4386393576860428, -0.6160460114479065, -2.0, -2.0, -2.0], "value": [[[0.5990491283676705, 0.4009508716323297], [0.9070422535211268, 0.09295774647887324], [1.0, 0.0], [0.6292134831460674, 0.3707865168539326], [0.20289855072463772, 0.7971014492753624], [0.06965174129353235, 0.9303482587064678], [0.3888888888888889, 0.611111111111111], [0.0, 1.0], [0.5599999999999999, 0.43999999999999995]]]}, {"n_nodes": 13, "children_left": [1, 2, -1, 4, -1, -1, 7, 8, -1, -1, 11, -1, -1], "children_right": [6, 3, -1, 5, -1, -1, 10, 9, -1, -1, 12, -1, -1], "feature": [9, 9, -2, 7, -2, -2, 2, 5, -2, -2, 9, -2, -2], "threshold": [-0.4704638719558716, -0.635321170091629, -2.0, 0.17308952286839485, -2.0, -2.0, -0.14887245744466782, -0.07534156180918217, -2.0, -2.0, 0.033913955092430115, -2.0, -2.0], "value": [[[0.5000000000000003, 0.5000000000000003], [0.1450777202072539, 0.854922279792746], [0.0, 1.0], [0.2413793103448276, 0.7586206896551725], [0.4590163934426229, 0.540983606557377], [0.0, 1.0], [0.6619385342789599, 0.3380614657210402], [0.9602888086642599, 0.03971119133574007], [0.717948717948718, 0.28205128205128205], [1.0, 0.0], [0.09589041095890413, 0.904109589041096], [0.2978723404255319, 0.7021276595744681], [0.0, 1.0]]]}, {"n_nodes": 13, "children_left": [1, 2, 3, -1, -1, -1, 7, 8, -1, -1, 11, -1, -1], "children_right": [6, 5, 4, -1, -1, -1, 10, 9, -1, -1, 12, -1, -1], "feature": [5, 1, 6, -2, -2, -2, 9, 10, -2, -2, 4, -2, -2], "threshold": [-0.0479492899030447, -0.18970077857375145, -0.3941059410572052, -2.0, -2.0, -2.0, -0.5335366278886795, -0.6901326477527618, -2.0, -2.0, 0.27765707671642303, -2.0, -2.0], "value": [[[0.43822075782537095, 0.5617792421746296], [0.175, 0.825], [0.38888888888888884, 0.611111111111111], [1.0, 0.0], [0.0, 1.0], [0.0, 1.0], [0.6103542234332426, 0.3896457765667576], [0.3230769230769231, 0.676923076923077], [0.0, 1.0], [0.5599999999999999, 0.43999999999999995], [0.7679324894514769, 0.2320675105485232], [0.3373493975903615, 0.6626506024096386], [1.0, 0.0]]]}, {"n_nodes": 13, "children_left": [1, -1, 3, 4, -1, 6, -1, -1, 9, -1, 11, -1, -1], "children_right": [2, -1, 8, 5, -1, 7, -1, -1, 10, -1, 12, -1, -1], "feature": [10, -2, 8, 2, -2, 4, -2, -2, 10, -2, 4, -2, -2], "threshold": [-0.4970257878303528, -2.0, -0.05278400890529156, -0.8277051746845245, -2.0, -0.9629243612289429, -2.0, -2.0, -0.06968220556154847, -2.0, 1.0652602314949036, -2.0, -2.0], "value": [[[0.3745819397993313, 0.625418060200669], [0.0, 1.0], [0.5758354755784062, 0.42416452442159386], [0.2763157894736841, 0.7236842105263158], [0.5599999999999999, 0.43999999999999995], [0.13725490196078433, 0.8627450980392157], [0.3888888888888889, 0.611111111111111], [0.0, 1.0], [0.767932489451477, 0.23206751054852323], [0.4883720930232558, 0.5116279069767442], [0.9271523178807947, 0.07284768211920528], [1.0, 0.0], [0.7924528301886792, 0.20754716981132074]]]}, {"n_nodes": 13, "children_left": [1, -1, 3, 4, 5, -1, -1, 8, -1, -1, 11, -1, -1], "children_right": [2, -1, 10, 7, 6, -1, -1, 9, -1, -1, 12, -1, -1], "feature": [3, -2, 6, 4, 9, -2, -2, 10, -2, -2, 9, -2, -2], "threshold": [-0.7166768610477448, -2.0, -0.39006344974040985, 1.086304247379303, -0.12184916250407696, -2.0, -2.0, 0.2916271463036537, -2.0, -2.0, -0.5292438864707947, -2.0, -2.0], "value": [[[0.5401929260450163, 0.45980707395498405], [0.0, 1.0], [0.7179487179487182, 0.28205128205128205], [0.8286604361370716, 0.17133956386292834], [0.9502262443438915, 0.0497737556561086], [1.0, 0.0], [0.7924528301886792, 0.20754716981132074], [0.5599999999999999, 0.43999999999999995], [0.2978723404255319, 0.7021276595744681], [0.7924528301886792, 0.20754716981132074], [0.47619047619047616, 0.5238095238095238], [0.0, 1.0], [0.7608695652173912, 0.2391304347826087]]]}, {"n_nodes": 15, "children_left": [1, 2, 3, 4, -1, -1, -1, 8, -1, -1, 11, 12, -1, -1, -1], "children_right": [10, 7, 6, 5, -1, -1, -1, 9, -1, -1, 14, 13, -1, -1, -1], "feature": [3, 4, 8, 2, -2, -2, -2, 2, -2, -2, 4, 4, -2, -2, -2], "threshold": [0.9270873069763184, -0.08045108616352081, 0.1148252971470356, -0.3994074985384941, -2.0, -2.0, -2.0, -0.5927635133266449, -2.0, -2.0, 1.2355305552482605, 0.8584387004375458, -2.0, -2.0, -2.0], "value": [[[0.5201938610662362, 0.4798061389337644], [0.37004405286343606, 0.6299559471365638], [0.4946996466431096, 0.5053003533568905], [0.25766871165644173, 0.7423312883435583], [0.717948717948718, 0.28205128205128205], [0.11290322580645161, 0.8870967741935484], [0.8166666666666667, 0.18333333333333332], [0.16374269005847952, 0.8362573099415205], [0.0, 1.0], [0.459016393442623, 0.5409836065573771], [0.9333333333333332, 0.06666666666666665], [1.0, 0.0], [1.0, 0.0], [1.0, 0.0], [0.717948717948718, 0.28205128205128205]]]}, {"n_nodes": 11, "children_left": [1, 2, 3, -1, 5, -1, -1, -1, 9, -1, -1], "children_right": [8, 7, 4, -1, 6, -1, -1, -1, 10, -1, -1], "feature": [2, 6, 1, -2, 11, -2, -2, -2, 8, -2, -2], "threshold": [-0.17986516654491425, -0.34588073194026947, -0.8974419832229614, -2.0, 0.2949507012963295, -2.0, -2.0, -2.0, 0.7358575165271759, -2.0, -2.0], "value": [[[0.41721854304635786, 0.5827814569536426], [0.7828947368421052, 0.21710526315789472], [0.8990825688073393, 0.10091743119266054], [0.65625, 0.34375], [1.0, 0.0], [1.0, 0.0], [1.0, 0.0], [0.4883720930232558, 0.5116279069767442], [0.046666666666666676, 0.9533333333333334], [0.0, 1.0], [0.3888888888888889, 0.611111111111111]]]}, {"n_nodes": 11, "children_left": [1, 2, 3, -1, -1, -1, 7, -1, 9, -1, -1], "children_right": [6, 5, 4, -1, -1, -1, 8, -1, 10, -1, -1], "feature": [2, 9, 0, -2, -2, -2, 10, -2, 2, -2, -2], "threshold": [-0.17986516654491425, -0.4411933422088623, 0.6064466536045074, -2.0, -2.0, -2.0, -0.44786669313907623, -2.0, 0.40797626972198486, -2.0, -2.0], "value": [[[0.5990491283676707, 0.4009508716323297], [0.8641975308641975, 0.13580246913580246], [0.6405228758169934, 0.3594771241830065], [0.8641975308641975, 0.13580246913580246], [0.3888888888888889, 0.611111111111111], [1.0, 0.0], [0.12389380530973451, 0.8761061946902655], [0.0, 1.0], [0.22047244094488191, 0.7795275590551182], [0.0, 1.0], [0.4590163934426229, 0.540983606557377]]]}, {"n_nodes": 9, "children_left": [1, -1, 3, 4, 5, -1, -1, -1, -1], "children_right": [2, -1, 8, 7, 6, -1, -1, -1, -1], "feature": [3, -2, 6, 11, 4, -2, -2, -2, -2], "threshold": [-0.04172408580780029, -2.0, -0.3658766448497772, 1.2224234342575073, -0.11238748207688332, -2.0, -2.0, -2.0, -2.0], "value": [[[0.4172185430463579, 0.5827814569536427], [0.0, 1.0], [0.7659574468085105, 0.2340425531914893], [0.9153846153846152, 0.0846153846153846], [1.0, 0.0], [1.0, 0.0], [1.0, 0.0], [0.5599999999999999, 0.43999999999999995], [0.20289855072463764, 0.7971014492753622]]]}, {"n_nodes": 11, "children_left": [1, 2, 3, -1, 5, -1, -1, -1, 9, -1, -1], "children_right": [8, 7, 4, -1, 6, -1, -1, -1, 10, -1, -1], "feature": [6, 7, 8, -2, 2, -2, -2, -2, 3, -2, -2], "threshold": [-0.36802347004413605, 0.5622292757034302, -0.48958009481430054, -2.0, -0.14887245744466782, -2.0, -2.0, -2.0, -1.3848183155059814, -2.0, -2.0], "value": [[[0.5201938610662361, 0.4798061389337643], [0.7648456057007126, 0.23515439429928742], [0.8698224852071006, 0.13017751479289938], [0.5599999999999999, 0.43999999999999995], [0.923611111111111, 0.07638888888888888], [1.0, 0.0], [0.7179487179487178, 0.282051282051282], [0.3373493975903615, 0.6626506024096386], [0.0, 1.0], [0.0, 1.0], [0.0, 1.0]]]}, {"n_nodes": 13, "children_left": [1, 2, -1, 4, -1, -1, 7, -1, 9, -1, 11, -1, -1], "children_right": [6, 3, -1, 5, -1, -1, 8, -1, 10, -1, 12, -1, -1], "feature": [8, 0, -2, 11, -2, -2, 6, -2, 10, -2, 7, -2, -2], "threshold": [-0.04837658070027828, 0.002369903028011322, -2.0, 0.7974099218845367, -2.0, -2.0, -0.4624547213315964, -2.0, -0.5319880247116089, -2.0, 0.1926848366856575, -2.0, -2.0], "value": [[[0.5401929260450163, 0.45980707395498405], [0.21132075471698114, 0.7886792452830188], [0.0, 1.0], [0.3888888888888889, 0.6111111111111112], [0.2978723404255319, 0.7021276595744681], [0.5599999999999999, 0.43999999999999995], [0.7843137254901961, 0.21568627450980393], [1.0, 0.0], [0.6451612903225806, 0.3548387096774194], [0.0, 1.0], [0.7608695652173912, 0.2391304347826087], [1.0, 0.0], [0.2413793103448276, 0.7586206896551725]]]}, {"n_nodes": 13, "children_left": [1, 2, -1, 4, 5, -1, -1, 8, -1, -1, 11, -1, -1], "children_right": [10, 3, -1, 7, 6, -1, -1, 9, -1, -1, 12, -1, -1], "feature": [1, 2, -2, 9, 3, -2, -2, 7, -2, -2, 5, -2, -2], "threshold": [0.3847595229744911, -0.8277051746845245, -2.0, -0.3977137506008148, 0.9881158471107483, -2.0, -2.0, 0.3960503190755844, -2.0, -2.0, -1.1200616359710693, -2.0, -2.0], "value": [[[0.5600000000000003, 0.44000000000000006], [0.779510022271715, 0.22048997772828507], [1.0, 0.0], [0.664406779661017, 0.3355932203389831], [0.38888888888888884, 0.611111111111111], [0.15384615384615383, 0.8461538461538461], [0.7924528301886792, 0.20754716981132074], [0.9271523178807947, 0.07284768211920528], [1.0, 0.0], [0.7924528301886792, 0.20754716981132074], [0.0, 1.0], [0.0, 1.0], [0.0, 1.0]]]}, {"n_nodes": 9, "children_left": [1, -1, 3, 4, -1, 6, -1, -1, -1], "children_right": [2, -1, 8, 5, -1, 7, -1, -1, -1], "feature": [1, -2, 1, 3, -2, 8, -2, -2, -2], "threshold": [-0.6175926923751831, -2.0, 0.3847595229744911, 0.28859660774469376, -2.0, 0.21744178980588913, -2.0, -2.0, -2.0], "value": [[[0.5201938610662361, 0.4798061389337643], [1.0, 0.0], [0.22047244094488194, 0.7795275590551182], [0.4883720930232558, 0.5116279069767442], [1.0, 0.0], [0.24137931034482757, 0.7586206896551723], [0.175, 0.825], [0.3888888888888889, 0.611111111111111], [0.0, 1.0]]]}, {"n_nodes": 11, "children_left": [1, -1, 3, 4, -1, -1, 7, -1, 9, -1, -1], "children_right": [2, -1, 6, 5, -1, -1, 8, -1, 10, -1, -1], "feature": [10, -2, 9, 0, -2, -2, 3, -2, 2, -2, -2], "threshold": [-0.5319880247116089, -2.0, -0.43721505999565125, 0.9660441875457764, -2.0, -2.0, -0.7166768610477448, -2.0, -0.1572927162051201, -2.0, -2.0], "value": [[[0.5201938610662362, 0.47980613893376434], [0.0, 1.0], [0.7268623024830702, 0.27313769751693007], [0.26666666666666666, 0.7333333333333334], [0.0, 1.0], [0.717948717948718, 0.28205128205128205], [0.8698224852071006, 0.13017751479289938], [0.0, 1.0], [0.9639344262295082, 0.0360655737704918], [1.0, 0.0], [0.7924528301886792, 0.20754716981132074]]]}, {"n_nodes": 11, "children_left": [1, 2, -1, 4, -1, -1, 7, -1, 9, -1, -1], "children_right": [6, 3, -1, 5, -1, -1, 8, -1, 10, -1, -1], "feature": [5, 0, -2, 7, -2, -2, 9, -2, 1, -2, -2], "threshold": [-0.04063238762319088, 0.46528950333595276, -2.0, 0.46058978140354156, -2.0, -2.0, -0.5335366278886795, -2.0, -0.6322068870067596, -2.0, -2.0], "value": [[[0.5000000000000001, 0.5], [0.10370370370370373, 0.8962962962962964], [0.0, 1.0], [0.3373493975903614, 0.6626506024096385], [0.0, 1.0], [0.717948717948718, 0.28205128205128205], [0.8092485549132948, 0.1907514450867052], [0.0, 1.0], [0.9271523178807949, 0.07284768211920531], [1.0, 0.0], [0.7608695652173912, 0.2391304347826087]]]}, {"n_nodes": 13, "children_left": [1, 2, -1, 4, 5, -1, -1, 8, -1, -1, 11, -1, -1], "children_right": [10, 3, -1, 7, 6, -1, -1, 9, -1, -1, 12, -1, -1], "feature": [7, 0, -2, 5, 7, -2, -2, 2, -2, -2, 10, -2, -2], "threshold": [0.6130629181861877, -0.8824012875556946, -2.0, 0.16671281307935715, -0.3719012141227722, -2.0, -2.0, -0.7469257116317749, -2.0, -2.0, -0.329085074365139, -2.0, -2.0], "value": [[[0.6373626373626375, 0.3626373626373627], [0.7703984819734349, 0.2296015180265655], [0.0, 1.0], [0.8405797101449274, 0.15942028985507242], [0.47619047619047616, 0.5238095238095237], [0.0, 1.0], [0.6796116504854368, 0.32038834951456313], [1.0, 0.0], [1.0, 0.0], [1.0, 0.0], [0.0, 1.0], [0.0, 1.0], [0.0, 1.0]]]}, {"n_nodes": 13, "children_left": [1, 2, 3, -1, 5, -1, -1, 8, -1, -1, 11, -1, -1], "children_right": [10, 7, 4, -1, 6, -1, -1, 9, -1, -1, 12, -1, -1], "feature": [8, 1, 11, -2, 11, -2, -2, 1, -2, -2, 2, -2, -2], "threshold": [0.5119209289550781, -0.22178688645362854, -0.5537791848182678, -2.0, 0.4467938393354416, -2.0, -2.0, 1.5863702297210693, -2.0, -2.0, 0.851557120680809, -2.0, -2.0], "value": [[[0.37458193979933135, 0.625418060200669], [0.22897196261682243, 0.7710280373831775], [0.4097560975609757, 0.5902439024390244], [0.0, 1.0], [0.5217391304347826, 0.4782608695652173], [0.6292134831460673, 0.37078651685393255], [0.38888888888888884, 0.611111111111111], [0.06278026905829596, 0.9372197309417041], [0.0, 1.0], [0.3888888888888889, 0.611111111111111], [0.7411764705882353, 0.25882352941176473], [1.0, 0.0], [0.0, 1.0]]]}, {"n_nodes": 13, "children_left": [1, -1, 3, 4, 5, -1, -1, -1, 9, -1, 11, -1, -1], "children_right": [2, -1, 8, 7, 6, -1, -1, -1, 10, -1, 12, -1, -1], "feature": [3, -2, 5, 2, 4, -2, -2, -2, 6, -2, 4, -2, -2], "threshold": [-0.6778070032596588, -2.0, -0.052697429433465004, -0.3274105414748192, 0.029714494943618774, -2.0, -2.0, -2.0, -0.4609396606683731, -2.0, 1.0652602314949036, -2.0, -2.0], "value": [[[0.41721854304635786, 0.5827814569536426], [0.0, 1.0], [0.588785046728972, 0.4112149532710281], [0.2978723404255319, 0.7021276595744681], [0.48837209302325574, 0.5116279069767441], [0.5599999999999999, 0.43999999999999995], [0.3888888888888889, 0.611111111111111], [0.0, 1.0], [0.7317073170731707, 0.26829268292682923], [1.0, 0.0], [0.47619047619047616, 0.5238095238095237], [0.6292134831460674, 0.3707865168539326], [0.2413793103448276, 0.7586206896551725]]]}, {"n_nodes": 11, "children_left": [1, 2, 3, -1, 5, -1, -1, 8, -1, -1, -1], "children_right": [10, 7, 4, -1, 6, -1, -1, 9, -1, -1, -1], "feature": [3, 11, 6, -2, 4, -2, -2, 7, -2, -2, -2], "threshold": [0.9422719478607178, 0.7897377014160156, -0.43730756640434265, -2.0, 0.2996683865785599, -2.0, -2.0, 0.4007320702075958, -2.0, -2.0, -2.0], "value": [[[0.5000000000000003, 0.5000000000000002], [0.3125, 0.6875000000000001], [0.1423728813559322, 0.8576271186440677], [0.717948717948718, 0.28205128205128205], [0.05468750000000001, 0.9453125], [0.0, 1.0], [0.3888888888888889, 0.611111111111111], [0.6405228758169934, 0.3594771241830065], [0.2413793103448276, 0.7586206896551725], [0.8842105263157894, 0.11578947368421053], [1.0, 0.0]]]}, {"n_nodes": 17, "children_left": [1, 2, 3, -1, -1, 6, 7, -1, -1, -1, 11, 12, -1, -1, 15, -1, -1], "children_right": [10, 5, 4, -1, -1, 9, 8, -1, -1, -1, 14, 13, -1, -1, 16, -1, -1], "feature": [6, 9, 6, -2, -2, 2, 10, -2, -2, -2, 8, 4, -2, -2, 7, -2, -2], "threshold": [-0.42966921627521515, -0.441338375210762, -0.45291867852211, -2.0, -2.0, -0.21654989570379257, 0.03947674622759223, -2.0, -2.0, -2.0, 0.4751601964235306, 0.2012692466378212, -2.0, -2.0, -0.4675156846642494, -2.0, -2.0], "value": [[[0.5796178343949048, 0.42038216560509567], [0.7755102040816326, 0.22448979591836732], [0.43298969072164945, 0.5670103092783505], [0.0, 1.0], [0.7924528301886792, 0.20754716981132074], [0.9105691056910568, 0.08943089430894308], [1.0, 0.0], [1.0, 0.0], [1.0, 0.0], [0.5599999999999999, 0.43999999999999995], [0.3438596491228071, 0.656140350877193], [0.0736842105263158, 0.9263157894736842], [0.0, 1.0], [0.3888888888888889, 0.611111111111111], [0.8842105263157893, 0.11578947368421051], [1.0, 0.0], [0.717948717948718, 0.28205128205128205]]]}, {"n_nodes": 11, "children_left": [1, 2, -1, -1, 5, -1, 7, -1, 9, -1, -1], "children_right": [4, 3, -1, -1, 6, -1, 8, -1, 10, -1, -1], "feature": [11, 6, -2, -2, 5, -2, 9, -2, 9, -2, -2], "threshold": [-0.5882346332073212, -0.3848164230585098, -2.0, -2.0, -0.7122842967510223, -2.0, -0.5335366278886795, -2.0, -0.4411933422088623, -2.0, -2.0], "value": [[[0.6182965299684547, 0.38170347003154587], [0.11290322580645161, 0.8870967741935484], [0.3888888888888889, 0.611111111111111], [0.0, 1.0], [0.7411764705882354, 0.2588235294117647], [0.2413793103448276, 0.7586206896551725], [0.8053097345132744, 0.19469026548672566], [0.43298969072164945, 0.5670103092783505], [0.9070422535211267, 0.09295774647887323], [0.7608695652173911, 0.23913043478260865], [0.9581749049429658, 0.04182509505703422]]]}, {"n_nodes": 11, "children_left": [1, 2, -1, -1, 5, 6, -1, 8, -1, -1, -1], "children_right": [4, 3, -1, -1, 10, 7, -1, 9, -1, -1, -1], "feature": [5, 7, -2, -2, 1, 10, -2, 3, -2, -2, -2], "threshold": [0.029578980058431625, 0.4848420172929764, -2.0, -2.0, 0.6816061213612556, -0.5928508043289185, -2.0, 1.0524341464042664, -2.0, -2.0, -2.0], "value": [[[0.5201938610662361, 0.4798061389337642], [0.21132075471698117, 0.7886792452830189], [0.0, 1.0], [0.5599999999999999, 0.43999999999999995], [0.7514124293785311, 0.2485875706214689], [0.8580645161290323, 0.14193548387096774], [0.2978723404255319, 0.7021276595744681], [0.9581749049429658, 0.04182509505703422], [1.0, 0.0], [0.7924528301886792, 0.20754716981132074], [0.0, 1.0]]]}, {"n_nodes": 11, "children_left": [1, 2, 3, -1, -1, -1, 7, 8, -1, -1, -1], "children_right": [6, 5, 4, -1, -1, -1, 10, 9, -1, -1, -1], "feature": [6, 1, 11, -2, -2, -2, 6, 6, -2, -2, -2], "threshold": [-0.4289410561323166, -0.22178688645362854, 0.4498966932296753, -2.0, -2.0, -2.0, 0.21952462568879128, -0.40012988448143005, -2.0, -2.0, -2.0], "value": [[[0.5201938610662361, 0.4798061389337642], [0.7924528301886792, 0.20754716981132074], [0.9430051813471502, 0.05699481865284973], [1.0, 0.0], [0.717948717948718, 0.28205128205128205], [0.3888888888888889, 0.611111111111111], [0.3163841807909605, 0.6836158192090395], [0.1302325581395349, 0.8697674418604652], [0.3888888888888889, 0.611111111111111], [0.0, 1.0], [0.6043165467625898, 0.39568345323741005]]]}, {"n_nodes": 11, "children_left": [1, 2, 3, -1, 5, -1, -1, 8, -1, -1, -1], "children_right": [10, 7, 4, -1, 6, -1, -1, 9, -1, -1, -1], "feature": [5, 6, 0, -2, 0, -2, -2, 4, -2, -2, -2], "threshold": [0.5119380056858063, -0.42355483770370483, -0.08376257121562958, -2.0, 0.9520873427391052, -2.0, -2.0, -1.1502259969711304, -2.0, -2.0, -2.0], "value": [[[0.4172185430463579, 0.5827814569536426], [0.2635983263598326, 0.7364016736401671], [0.6206896551724139, 0.3793103448275863], [0.29787234042553196, 0.7021276595744681], [0.7179487179487178, 0.282051282051282], [0.8990825688073395, 0.10091743119266056], [0.2978723404255319, 0.7021276595744681], [0.0, 1.0], [0.0, 1.0], [0.0, 1.0], [1.0, 0.0]]]}, {"n_nodes": 11, "children_left": [1, 2, -1, 4, -1, -1, 7, -1, 9, -1, -1], "children_right": [6, 3, -1, 5, -1, -1, 8, -1, 10, -1, -1], "feature": [4, 0, -2, 6, -2, -2, 9, -2, 6, -2, -2], "threshold": [0.5733988881111145, -0.3196019381284714, -2.0, -0.4289410561323166, -2.0, -2.0, -0.4704638719558716, -2.0, -0.44321969151496887, -2.0, -2.0], "value": [[[0.3745819397993314, 0.6254180602006694], [0.22047244094488194, 0.7795275590551181], [0.0, 1.0], [0.3700440528634361, 0.6299559471365639], [1.0, 0.0], [0.0, 1.0], [0.6451612903225806, 0.3548387096774193], [0.15384615384615385, 0.8461538461538461], [1.0, 0.0], [1.0, 0.0], [1.0, 0.0]]]}, {"n_nodes": 13, "children_left": [1, 2, 3, -1, 5, -1, -1, -1, 9, -1, 11, -1, -1], "children_right": [8, 7, 4, -1, 6, -1, -1, -1, 10, -1, 12, -1, -1], "feature": [2, 4, 2, -2, 1, -2, -2, -2, 11, -2, 2, -2, -2], "threshold": [-0.18588560074567795, 1.4144259691238403, -0.8635969460010529, -2.0, -0.5919933915138245, -2.0, -2.0, -2.0, -1.2756958603858948, -2.0, 0.40797626972198486, -2.0, -2.0], "value": [[[0.5201938610662361, 0.4798061389337643], [0.7843137254901961, 0.21568627450980393], [0.8513513513513514, 0.14864864864864866], [0.6292134831460673, 0.37078651685393255], [0.9468599033816424, 0.05314009661835748], [1.0, 0.0], [0.7924528301886792, 0.20754716981132074], [0.459016393442623, 0.5409836065573771], [0.16030534351145037, 0.8396946564885496], [0.0, 1.0], [0.2978723404255319, 0.7021276595744681], [0.0, 1.0], [0.65625, 0.34375]]]}, {"n_nodes": 11, "children_left": [1, 2, -1, 4, -1, 6, -1, -1, 9, -1, -1], "children_right": [8, 3, -1, 5, -1, 7, -1, -1, 10, -1, -1], "feature": [2, 4, -2, 7, -2, 11, -2, -2, 1, -2, -2], "threshold": [-0.14887245744466782, -0.11396711319684982, -2.0, -0.0909414067864418, -2.0, 0.16472139209508896, -2.0, -2.0, 0.385483093559742, -2.0, -2.0], "value": [[[0.5201938610662361, 0.4798061389337643], [0.7696335078534032, 0.23036649214659688], [1.0, 0.0], [0.6140350877192983, 0.38596491228070173], [0.0, 1.0], [0.8092485549132948, 0.1907514450867052], [1.0, 0.0], [0.6292134831460673, 0.37078651685393255], [0.11814345991561184, 0.8818565400843882], [0.4590163934426229, 0.540983606557377], [0.0, 1.0]]]}, {"n_nodes": 11, "children_left": [1, 2, -1, -1, 5, -1, 7, 8, -1, -1, -1], "children_right": [4, 3, -1, -1, 6, -1, 10, 9, -1, -1, -1], "feature": [9, 5, -2, -2, 10, -2, 9, 7, -2, -2, -2], "threshold": [-0.5335366278886795, -0.5644996464252472, -2.0, -2.0, -0.6737898588180542, -2.0, 0.5560664683580399, 0.5729935467243195, -2.0, -2.0, -2.0], "value": [[[0.5600000000000002, 0.44000000000000006], [0.12389380530973451, 0.8761061946902655], [0.3888888888888889, 0.611111111111111], [0.0, 1.0], [0.6562499999999999, 0.34374999999999983], [0.0, 1.0], [0.7533632286995517, 0.24663677130044848], [0.835820895522388, 0.16417910447761194], [0.8797814207650273, 0.12021857923497266], [0.3888888888888889, 0.611111111111111], [0.0, 1.0]]]}, {"n_nodes": 9, "children_left": [1, 2, -1, 4, -1, -1, 7, -1, -1], "children_right": [6, 3, -1, 5, -1, -1, 8, -1, -1], "feature": [2, 0, -2, 9, -2, -2, 0, -2, -2], "threshold": [-0.17986516654491425, -0.5057417005300522, -2.0, -0.49356256425380707, -2.0, -2.0, -1.5268760919570923, -2.0, -2.0], "value": [[[0.5600000000000004, 0.44000000000000017], [0.8641975308641975, 0.13580246913580246], [0.2978723404255319, 0.7021276595744681], [0.9385474860335195, 0.06145251396648044], [0.7608695652173912, 0.2391304347826087], [1.0, 0.0], [0.0, 1.0], [0.0, 1.0], [0.0, 1.0]]]}, {"n_nodes": 11, "children_left": [1, -1, 3, 4, -1, 6, -1, -1, 9, -1, -1], "children_right": [2, -1, 8, 5, -1, 7, -1, -1, 10, -1, -1], "feature": [3, -2, 6, 6, -2, 6, -2, -2, 5, -2, -2], "threshold": [-0.6778070032596588, -2.0, -0.3941059410572052, -0.4624547213315964, -2.0, -0.4469676613807678, -2.0, -2.0, -0.673455148935318, -2.0, -2.0], "value": [[[0.6182965299684545, 0.3817034700315458], [0.0, 1.0], [0.7641325536062377, 0.2358674463937621], [0.8687350835322196, 0.13126491646778043], [1.0, 0.0], [0.7924528301886792, 0.20754716981132074], [0.3888888888888889, 0.611111111111111], [0.9430051813471503, 0.05699481865284974], [0.2978723404255319, 0.7021276595744681], [0.0, 1.0], [0.5599999999999999, 0.43999999999999995]]]}, {"n_nodes": 13, "children_left": [1, 2, 3, -1, 5, -1, -1, -1, 9, -1, 11, -1, -1], "children_right": [8, 7, 4, -1, 6, -1, -1, -1, 10, -1, 12, -1, -1], "feature": [6, 2, 0, -2, 4, -2, -2, -2, 11, -2, 2, -2, -2], "threshold": [-0.43086110055446625, 0.3274035155773163, 0.2830730229616165, -2.0, 0.367476150393486, -2.0, -2.0, -2.0, -0.22924625873565674, -2.0, -0.18588560074567795, -2.0, -2.0], "value": [[[0.5000000000000003, 0.5000000000000001], [0.8439716312056738, 0.15602836879432622], [0.9105691056910568, 0.08943089430894308], [1.0, 0.0], [0.7924528301886793, 0.20754716981132074], [1.0, 0.0], [0.3888888888888889, 0.611111111111111], [0.3888888888888889, 0.611111111111111], [0.20958083832335334, 0.7904191616766469], [0.0, 1.0], [0.4142011834319526, 0.5857988165680473], [0.6796116504854368, 0.32038834951456313], [0.0, 1.0]]]}, {"n_nodes": 11, "children_left": [1, 2, -1, 4, 5, -1, -1, -1, 9, -1, -1], "children_right": [8, 3, -1, 7, 6, -1, -1, -1, 10, -1, -1], "feature": [1, 1, -2, 5, 0, -2, -2, -2, 6, -2, -2], "threshold": [0.385483093559742, -1.1192810535430908, -2.0, 0.16671281307935715, 0.02785489708185196, -2.0, -2.0, -2.0, -0.4105980545282364, -2.0, -2.0], "value": [[[0.5000000000000001, 0.5], [0.7084337349397589, 0.29156626506024086], [0.0, 1.0], [0.8166666666666667, 0.18333333333333332], [0.5147058823529411, 0.4852941176470589], [0.0, 1.0], [0.7608695652173912, 0.2391304347826087], [1.0, 0.0], [0.06965174129353235, 0.9303482587064678], [0.3888888888888889, 0.611111111111111], [0.0, 1.0]]]}, {"n_nodes": 11, "children_left": [1, -1, 3, -1, 5, 6, -1, -1, 9, -1, -1], "children_right": [2, -1, 4, -1, 8, 7, -1, -1, 10, -1, -1], "feature": [3, -2, 5, -2, 3, 4, -2, -2, 8, -2, -2], "threshold": [-0.6778070032596588, -2.0, -0.13760915398597717, -2.0, 0.9306704998016357, -0.040851738303899765, -2.0, -2.0, 0.19642863422632217, -2.0, -2.0], "value": [[[0.5000000000000003, 0.5000000000000001], [0.0, 1.0], [0.7000000000000001, 0.30000000000000004], [0.3529411764705882, 0.6470588235294117], [0.8286604361370716, 0.17133956386292834], [0.65625, 0.34374999999999994], [1.0, 0.0], [0.2413793103448276, 0.7586206896551725], [0.9430051813471502, 0.05699481865284973], [0.7924528301886792, 0.20754716981132074], [1.0, 0.0]]]}, {"n_nodes": 13, "children_left": [1, 2, -1, 4, -1, -1, 7, 8, 9, -1, -1, -1, -1], "children_right": [6, 3, -1, 5, -1, -1, 12, 11, 10, -1, -1, -1, -1], "feature": [5, 1, -2, 11, -2, -2, 7, 4, 6, -2, -2, -2, -2], "threshold": [-0.052697429433465004, -0.8287995457649231, -2.0, 0.7974099218845367, -2.0, -2.0, 0.600248396396637, 1.3375859260559082, -0.40012988448143005, -2.0, -2.0, -2.0, -2.0], "value": [[[0.5000000000000003, 0.5000000000000001], [0.12389380530973454, 0.8761061946902654], [0.3888888888888889, 0.611111111111111], [0.07368421052631578, 0.9263157894736842], [0.0, 1.0], [0.29787234042553196, 0.7021276595744681], [0.7179487179487181, 0.2820512820512821], [0.8092485549132948, 0.1907514450867052], [0.8896321070234114, 0.11036789297658864], [1.0, 0.0], [0.5599999999999999, 0.44], [0.2978723404255319, 0.7021276595744681], [0.0, 1.0]]]}, {"n_nodes": 9, "children_left": [1, 2, -1, 4, -1, -1, 7, -1, -1], "children_right": [6, 3, -1, 5, -1, -1, 8, -1, -1], "feature": [1, 1, -2, 7, -2, -2, 11, -2, -2], "threshold": [-0.4520573168992996, -0.982634961605072, -2.0, -0.25114960223436356, -2.0, -2.0, 0.30281432811170816, -2.0, -2.0], "value": [[[0.5796178343949047, 0.42038216560509556], [0.8593350383631714, 0.14066496163682862], [0.3888888888888889, 0.611111111111111], [0.9655172413793104, 0.034482758620689655], [0.7924528301886792, 0.20754716981132074], [1.0, 0.0], [0.11814345991561186, 0.8818565400843885], [0.0, 1.0], [0.3373493975903614, 0.6626506024096385]]]}, {"n_nodes": 13, "children_left": [1, 2, 3, -1, -1, 6, -1, -1, 9, 10, -1, -1, -1], "children_right": [8, 5, 4, -1, -1, 7, -1, -1, 12, 11, -1, -1, -1], "feature": [6, 2, 6, -2, -2, 8, -2, -2, 2, 3, -2, -2, -2], "threshold": [-0.43086110055446625, -0.6274781823158264, -0.4565447121858597, -2.0, -2.0, 0.37490884959697723, -2.0, -2.0, -0.3201194927096367, 0.7087637186050415, -2.0, -2.0, -2.0], "value": [[[0.5201938610662361, 0.4798061389337642], [0.923611111111111, 0.07638888888888888], [1.0, 0.0], [1.0, 0.0], [1.0, 0.0], [0.8166666666666667, 0.18333333333333332], [1.0, 0.0], [0.5599999999999999, 0.43999999999999995], [0.16918429003021151, 0.8308157099697886], [0.4590163934426229, 0.540983606557377], [0.2028985507246377, 0.7971014492753623], [0.7924528301886792, 0.20754716981132074], [0.0, 1.0]]]}, {"n_nodes": 11, "children_left": [1, -1, 3, 4, 5, -1, -1, -1, 9, -1, -1], "children_right": [2, -1, 8, 7, 6, -1, -1, -1, 10, -1, -1], "feature": [10, -2, 8, 6, 9, -2, -2, -2, 0, -2, -2], "threshold": [-0.6299613416194916, -2.0, -0.13756362721323967, -0.26063641533255577, -0.6364187300205231, -2.0, -2.0, -2.0, -0.3196019381284714, -2.0, -2.0], "value": [[[0.5796178343949049, 0.4203821656050958], [0.0, 1.0], [0.7861771058315336, 0.21382289416846653], [0.4430379746835443, 0.5569620253164556], [0.6796116504854368, 0.3203883495145631], [0.4590163934426229, 0.540983606557377], [1.0, 0.0], [0.0, 1.0], [0.9639344262295082, 0.0360655737704918], [0.717948717948718, 0.28205128205128205], [1.0, 0.0]]]}, {"n_nodes": 11, "children_left": [1, 2, 3, 4, -1, -1, -1, -1, 9, -1, -1], "children_right": [8, 7, 6, 5, -1, -1, -1, -1, 10, -1, -1], "feature": [8, 9, 1, 5, -2, -2, -2, -2, 7, -2, -2], "threshold": [0.5119209289550781, -0.19595198333263397, -0.21817979961633682, -0.13760915398597717, -2.0, -2.0, -2.0, -2.0, 0.5729935467243195, -2.0, -2.0], "value": [[[0.47960848287112584, 0.5203915171288744], [0.2814070351758794, 0.7185929648241207], [0.4590163934426229, 0.540983606557377], [0.6292134831460673, 0.37078651685393255], [0.43298969072164945, 0.5670103092783505], [0.8641975308641975, 0.13580246913580246], [0.0, 1.0], [0.0, 1.0], [0.8465116279069768, 0.15348837209302324], [1.0, 0.0], [0.459016393442623, 0.5409836065573771]]]}, {"n_nodes": 15, "children_left": [1, 2, 3, 4, -1, -1, 7, -1, -1, 10, -1, -1, 13, -1, -1], "children_right": [12, 9, 6, 5, -1, -1, 8, -1, -1, 11, -1, -1, 14, -1, -1], "feature": [5, 1, 0, 8, -2, -2, 5, -2, -2, 10, -2, -2, 6, -2, -2], "threshold": [0.6095190346240997, -0.22178688645362854, -0.08376257121562958, 0.19642863422632217, -2.0, -2.0, -0.13760915398597717, -2.0, -2.0, -0.2526282612234354, -2.0, -2.0, -0.3873981684446335, -2.0, -2.0], "value": [[[0.4172185430463578, 0.5827814569536426], [0.29106029106029113, 0.7089397089397089], [0.42813455657492355, 0.5718654434250764], [0.0958904109589041, 0.9041095890410958], [0.0, 1.0], [0.3888888888888889, 0.611111111111111], [0.696132596685083, 0.30386740331491713], [0.56, 0.44000000000000006], [1.0, 0.0], [0.0, 1.0], [0.0, 1.0], [0.0, 1.0], [0.910569105691057, 0.08943089430894309], [1.0, 0.0], [0.717948717948718, 0.28205128205128205]]]}, {"n_nodes": 11, "children_left": [1, 2, -1, 4, 5, -1, -1, -1, 9, -1, -1], "children_right": [8, 3, -1, 7, 6, -1, -1, -1, 10, -1, -1], "feature": [2, 1, -2, 1, 11, -2, -2, -2, 0, -2, -2], "threshold": [-0.17986516654491425, -0.8916731178760529, -2.0, -0.21817979961633682, 0.8118741810321808, -2.0, -2.0, -2.0, -0.8194555044174194, -2.0, -2.0], "value": [[[0.6373626373626375, 0.3626373626373627], [0.8358208955223884, 0.164179104477612], [0.2028985507246377, 0.7971014492753623], [0.9450000000000001, 0.05499999999999999], [0.9695290858725762, 0.03047091412742382], [1.0, 0.0], [0.9271523178807947, 0.07284768211920528], [0.717948717948718, 0.28205128205128205], [0.08333333333333336, 0.9166666666666666], [0.2978723404255319, 0.7021276595744681], [0.0, 1.0]]]}, {"n_nodes": 11, "children_left": [1, 2, -1, -1, 5, -1, 7, -1, 9, -1, -1], "children_right": [4, 3, -1, -1, 6, -1, 8, -1, 10, -1, -1], "feature": [5, 4, -2, -2, 10, -2, 4, -2, 3, -2, -2], "threshold": [0.029578980058431625, 0.10539735108613968, -2.0, -2.0, -0.6843221187591553, -2.0, -0.525590792298317, -2.0, 1.0524341464042664, -2.0, -2.0], "value": [[[0.4796084828711259, 0.5203915171288744], [0.06965174129353234, 0.9303482587064676], [0.0, 1.0], [0.2978723404255319, 0.7021276595744681], [0.6796116504854368, 0.320388349514563], [0.13725490196078433, 0.8627450980392157], [0.8580645161290322, 0.14193548387096772], [0.3888888888888889, 0.611111111111111], [0.9197080291970802, 0.0802919708029197], [1.0, 0.0], [0.717948717948718, 0.28205128205128205]]]}, {"n_nodes": 11, "children_left": [1, 2, -1, -1, 5, 6, -1, -1, 9, -1, -1], "children_right": [4, 3, -1, -1, 8, 7, -1, -1, 10, -1, -1], "feature": [6, 1, -2, -2, 9, 5, -2, -2, 8, -2, -2], "threshold": [-0.43230167031288147, -0.21817979961633682, -2.0, -2.0, -0.4608371704816818, 0.601567953824997, -2.0, -2.0, -0.05527576804161072, -2.0, -2.0], "value": [[[0.6562500000000002, 0.3437500000000001], [0.9070422535211267, 0.09295774647887323], [1.0, 0.0], [0.4590163934426229, 0.540983606557377], [0.3438596491228071, 0.656140350877193], [0.7179487179487178, 0.282051282051282], [0.3888888888888889, 0.611111111111111], [0.8641975308641974, 0.13580246913580246], [0.08333333333333334, 0.9166666666666665], [0.0, 1.0], [0.3888888888888889, 0.611111111111111]]]}, {"n_nodes": 13, "children_left": [1, 2, 3, -1, 5, -1, -1, -1, 9, -1, 11, -1, -1], "children_right": [8, 7, 4, -1, 6, -1, -1, -1, 10, -1, 12, -1, -1], "feature": [0, 1, 9, -2, 7, -2, -2, -2, 3, -2, 9, -2, -2], "threshold": [0.1143382117152214, 0.3847595229744911, -0.3944598585367203, -2.0, -0.05184994637966156, -2.0, -2.0, -2.0, -0.40324701368808746, -2.0, -0.3938058018684387, -2.0, -2.0], "value": [[[0.5401929260450163, 0.45980707395498405], [0.3373493975903614, 0.6626506024096385], [0.6292134831460675, 0.37078651685393266], [0.24137931034482757, 0.7586206896551723], [0.8166666666666667, 0.18333333333333332], [0.3888888888888889, 0.611111111111111], [1.0, 0.0], [0.0, 1.0], [0.7724137931034483, 0.22758620689655173], [0.2028985507246377, 0.7971014492753623], [0.9502262443438915, 0.0497737556561086], [0.7924528301886792, 0.20754716981132074], [1.0, 0.0]]]}, {"n_nodes": 9, "children_left": [1, -1, 3, -1, 5, -1, 7, -1, -1], "children_right": [2, -1, 4, -1, 6, -1, 8, -1, -1], "feature": [7, -2, 3, -2, 11, -2, 8, -2, -2], "threshold": [-0.2289964035153389, -2.0, -0.40324701368808746, -2.0, -0.3383932188153267, -2.0, -0.13756362721323967, -2.0, -2.0], "value": [[[0.45901639344262324, 0.5409836065573772], [0.0, 1.0], [0.6140350877192982, 0.3859649122807016], [0.0, 1.0], [0.8092485549132948, 0.1907514450867052], [0.3888888888888889, 0.611111111111111], [0.8580645161290322, 0.14193548387096772], [0.4590163934426229, 0.540983606557377], [0.9558232931726908, 0.04417670682730924]]]}, {"n_nodes": 11, "children_left": [1, -1, 3, 4, -1, 6, -1, -1, 9, -1, -1], "children_right": [2, -1, 8, 5, -1, 7, -1, -1, 10, -1, -1], "feature": [3, -2, 6, 0, -2, 4, -2, -2, 6, -2, -2], "threshold": [-0.6486819386482239, -2.0, -0.3658766448497772, -0.5287141054868698, -2.0, 1.0520374178886414, -2.0, -2.0, 0.009779222309589386, -2.0, -2.0], "value": [[[0.5201938610662361, 0.4798061389337643], [0.0, 1.0], [0.6764705882352943, 0.32352941176470584], [0.8235294117647058, 0.1764705882352941], [0.29787234042553196, 0.7021276595744681], [0.8990825688073395, 0.10091743119266056], [1.0, 0.0], [0.6796116504854368, 0.3203883495145631], [0.1372549019607843, 0.8627450980392156], [0.0, 1.0], [0.3888888888888889, 0.611111111111111]]]}, {"n_nodes": 11, "children_left": [1, 2, 3, -1, 5, -1, -1, -1, 9, -1, -1], "children_right": [8, 7, 4, -1, 6, -1, -1, -1, 10, -1, -1], "feature": [2, 9, 0, -2, 9, -2, -2, -2, 10, -2, -2], "threshold": [-0.17313282191753387, -0.4411933422088623, -0.10408160835504532, -2.0, -0.598960816860199, -2.0, -2.0, -2.0, 0.4318869113922119, -2.0, -2.0], "value": [[[0.4796084828711259, 0.5203915171288747], [0.6756032171581768, 0.32439678284182305], [0.40975609756097553, 0.5902439024390242], [0.835820895522388, 0.16417910447761191], [0.2028985507246377, 0.7971014492753624], [0.4590163934426229, 0.540983606557377], [0.0, 1.0], [1.0, 0.0], [0.175, 0.825], [0.0, 1.0], [0.5599999999999999, 0.44]]]}, {"n_nodes": 13, "children_left": [1, 2, 3, -1, -1, 6, -1, -1, 9, 10, -1, -1, -1], "children_right": [8, 5, 4, -1, -1, 7, -1, -1, 12, 11, -1, -1, -1], "feature": [8, 6, 4, -2, -2, 0, -2, -2, 7, 11, -2, -2, -2], "threshold": [0.6093537509441376, -0.43086110055446625, 0.7961840480566025, -2.0, -2.0, -1.2245582342147827, -2.0, -2.0, 0.600248396396637, -0.10890368814580142, -2.0, -2.0, -2.0], "value": [[[0.3960066555740437, 0.6039933444259572], [0.2350119904076739, 0.7649880095923259], [0.6405228758169935, 0.3594771241830065], [1.0, 0.0], [0.2028985507246377, 0.7971014492753623], [0.0, 1.0], [0.0, 1.0], [0.0, 1.0], [0.7608695652173912, 0.23913043478260865], [1.0, 0.0], [1.0, 0.0], [1.0, 0.0], [0.0, 1.0]]]}, {"n_nodes": 13, "children_left": [1, 2, 3, -1, -1, -1, 7, 8, 9, -1, -1, -1, -1], "children_right": [6, 5, 4, -1, -1, -1, 12, 11, 10, -1, -1, -1, -1], "feature": [5, 6, 9, -2, -2, -2, 2, 6, 11, -2, -2, -2, -2], "threshold": [0.16671281307935715, -0.42966921627521515, -0.560179591178894, -2.0, -2.0, -2.0, -0.13605083152651787, -0.4609396606683731, 0.19091523438692093, -2.0, -2.0, -2.0, -2.0], "value": [[[0.4172185430463579, 0.5827814569536426], [0.13725490196078433, 0.8627450980392156], [0.48837209302325574, 0.5116279069767441], [0.2978723404255319, 0.7021276595744681], [0.717948717948718, 0.28205128205128205], [0.0, 1.0], [0.7046979865771812, 0.2953020134228188], [0.9051724137931033, 0.09482758620689653], [1.0, 0.0], [1.0, 0.0], [1.0, 0.0], [0.7608695652173912, 0.23913043478260865], [0.0, 1.0]]]}, {"n_nodes": 13, "children_left": [1, 2, 3, 4, -1, -1, -1, -1, 9, -1, 11, -1, -1], "children_right": [8, 7, 6, 5, -1, -1, -1, -1, 10, -1, 12, -1, -1], "feature": [1, 8, 6, 3, -2, -2, -2, -2, 4, -2, 9, -2, -2], "threshold": [0.3847595229744911, 0.4934551417827606, -0.42355483770370483, 0.6462927609682083, -2.0, -2.0, -2.0, -2.0, -1.4974409341812134, -2.0, -0.4975235015153885, -2.0, -2.0], "value": [[[0.5201938610662361, 0.4798061389337642], [0.7368421052631579, 0.26315789473684204], [0.60431654676259, 0.39568345323741005], [0.7924528301886792, 0.20754716981132074], [1.0, 0.0], [0.6901408450704225, 0.30985915492957744], [0.0, 1.0], [1.0, 0.0], [0.06965174129353235, 0.9303482587064676], [0.3888888888888889, 0.611111111111111], [0.0, 1.0], [0.0, 1.0], [0.0, 1.0]]]}, {"n_nodes": 13, "children_left": [1, 2, 3, -1, -1, -1, 7, 8, -1, 10, -1, -1, -1], "children_right": [6, 5, 4, -1, -1, -1, 12, 9, -1, 11, -1, -1, -1], "feature": [6, 8, 9, -2, -2, -2, 4, 9, -2, 3, -2, -2, -2], "threshold": [-0.43086110055446625, 0.37490884959697723, -0.36534246802330017, -2.0, -2.0, -2.0, 0.759492963552475, -0.3668292909860611, -2.0, -0.7166768610477448, -2.0, -2.0, -2.0], "value": [[[0.5201938610662361, 0.4798061389337643], [0.7828947368421053, 0.21710526315789475], [0.8842105263157893, 0.11578947368421051], [0.5599999999999999, 0.43999999999999995], [1.0, 0.0], [0.6140350877192983, 0.38596491228070173], [0.2666666666666667, 0.7333333333333335], [0.06278026905829598, 0.937219730941704], [0.0, 1.0], [0.15384615384615385, 0.8461538461538463], [0.0, 1.0], [0.3888888888888889, 0.611111111111111], [0.7608695652173912, 0.2391304347826087]]]}, {"n_nodes": 13, "children_left": [1, 2, -1, -1, 5, -1, 7, 8, -1, -1, 11, -1, -1], "children_right": [4, 3, -1, -1, 6, -1, 10, 9, -1, -1, 12, -1, -1], "feature": [10, 9, -2, -2, 3, -2, 8, 1, -2, -2, 0, -2, -2], "threshold": [-0.6843221187591553, -0.23333432339131832, -2.0, -2.0, -0.6778070032596588, -2.0, 0.16649580746889114, -0.6345541477203369, -2.0, -2.0, 0.9520873427391052, -2.0, -2.0], "value": [[[0.5990491283676705, 0.4009508716323296], [0.175, 0.825], [0.0, 1.0], [0.5599999999999999, 0.43999999999999995], [0.743099787685775, 0.25690021231422505], [0.0, 1.0], [0.841346153846154, 0.15865384615384617], [0.6405228758169935, 0.35947712418300654], [0.8641975308641974, 0.13580246913580246], [0.38888888888888884, 0.611111111111111], [0.9581749049429656, 0.04182509505703421], [1.0, 0.0], [0.835820895522388, 0.16417910447761191]]]}, {"n_nodes": 11, "children_left": [1, 2, -1, 4, -1, -1, 7, 8, -1, -1, -1], "children_right": [6, 3, -1, 5, -1, -1, 10, 9, -1, -1, -1], "feature": [11, 5, -2, 6, -2, -2, 4, 6, -2, -2, -2], "threshold": [0.20724502950906754, 0.19660884141921997, -2.0, -0.4108960032463074, -2.0, -2.0, 1.0646915435791016, -0.47488683462142944, -2.0, -2.0, -2.0], "value": [[[0.6562500000000001, 0.34375000000000006], [0.4011461318051576, 0.5988538681948423], [0.0, 1.0], [0.717948717948718, 0.28205128205128205], [1.0, 0.0], [0.5045045045045046, 0.4954954954954955], [0.9621993127147765, 0.03780068728522336], [1.0, 0.0], [1.0, 0.0], [1.0, 0.0], [0.7924528301886792, 0.20754716981132074]]]}, {"n_nodes": 13, "children_left": [1, 2, 3, -1, -1, 6, -1, -1, 9, -1, 11, -1, -1], "children_right": [8, 5, 4, -1, -1, 7, -1, -1, 10, -1, 12, -1, -1], "feature": [2, 8, 3, -2, -2, 3, -2, -2, 1, -2, 11, -2, -2], "threshold": [-0.14887245744466782, -0.09596414305269718, 0.4052184373140335, -2.0, -2.0, 1.137524127960205, -2.0, -2.0, 0.14484867081046104, -2.0, -1.2756958603858948, -2.0, -2.0], "value": [[[0.5990491283676705, 0.4009508716323297], [0.835820895522388, 0.16417910447761194], [0.3373493975903614, 0.6626506024096385], [0.717948717948718, 0.28205128205128205], [0.0, 1.0], [0.9655172413793103, 0.03448275862068965], [1.0, 0.0], [0.7924528301886792, 0.20754716981132074], [0.1834061135371179, 0.816593886462882], [0.0, 1.0], [0.2978723404255319, 0.7021276595744681], [0.0, 1.0], [0.48837209302325574, 0.5116279069767441]]]}, {"n_nodes": 13, "children_left": [1, 2, -1, -1, 5, 6, 7, -1, -1, -1, 11, -1, -1], "children_right": [4, 3, -1, -1, 10, 9, 8, -1, -1, -1, 12, -1, -1], "feature": [10, 7, -2, -2, 1, 4, 9, -2, -2, -2, 6, -2, -2], "threshold": [-0.6737898588180542, 0.15623271279037, -2.0, -2.0, 0.385483093559742, 1.3375859260559082, -0.4411933422088623, -2.0, -2.0, -2.0, -0.017037153244018555, -2.0, -2.0], "value": [[[0.5600000000000002, 0.4400000000000001], [0.10370370370370371, 0.8962962962962965], [0.0, 1.0], [0.2978723404255319, 0.7021276595744681], [0.6857142857142858, 0.3142857142857143], [0.807017543859649, 0.19298245614035084], [0.9303797468354431, 0.06962025316455696], [0.6562499999999999, 0.34374999999999994], [1.0, 0.0], [0.3373493975903615, 0.6626506024096386], [0.15384615384615383, 0.8461538461538461], [0.3888888888888889, 0.611111111111111], [0.0, 1.0]]]}, {"n_nodes": 13, "children_left": [1, 2, -1, 4, 5, -1, -1, 8, -1, -1, 11, -1, -1], "children_right": [10, 3, -1, 7, 6, -1, -1, 9, -1, -1, 12, -1, -1], "feature": [6, 0, -2, 3, 5, -2, -2, 11, -2, -2, 5, -2, -2], "threshold": [-0.43230167031288147, -0.3196019381284714, -2.0, 0.9270873069763184, 0.07666647434234619, -2.0, -2.0, 0.3444509357213974, -2.0, -2.0, 0.6395653486251831, -2.0, -2.0], "value": [[[0.5201938610662361, 0.4798061389337642], [0.8286604361370716, 0.17133956386292834], [0.5599999999999999, 0.43999999999999995], [0.8782287822878229, 0.12177121771217711], [0.6796116504854369, 0.32038834951456313], [0.7924528301886792, 0.20754716981132074], [0.5599999999999999, 0.43999999999999995], [1.0, 0.0], [1.0, 0.0], [1.0, 0.0], [0.18791946308724836, 0.8120805369127517], [0.0, 1.0], [0.6292134831460674, 0.3707865168539326]]]}, {"n_nodes": 11, "children_left": [1, -1, 3, -1, 5, 6, -1, -1, 9, -1, -1], "children_right": [2, -1, 4, -1, 8, 7, -1, -1, 10, -1, -1], "feature": [3, -2, 1, -2, 11, 10, -2, -2, 10, -2, -2], "threshold": [-0.6778070032596588, -2.0, -0.982634961605072, -2.0, 0.6628066897392273, -0.29407108575105667, -2.0, -2.0, 1.3964425325393677, -2.0, -2.0], "value": [[[0.5000000000000001, 0.5000000000000001], [0.0, 1.0], [0.7000000000000001, 0.30000000000000004], [0.0, 1.0], [0.8484848484848485, 0.1515151515151515], [1.0, 0.0], [1.0, 0.0], [1.0, 0.0], [0.6706586826347305, 0.32934131736526945], [0.3373493975903614, 0.6626506024096385], [1.0, 0.0]]]}, {"n_nodes": 13, "children_left": [1, 2, 3, -1, 5, -1, -1, 8, -1, -1, 11, -1, -1], "children_right": [10, 7, 4, -1, 6, -1, -1, 9, -1, -1, 12, -1, -1], "feature": [9, 2, 10, -2, 9, -2, -2, 7, -2, -2, 3, -2, -2], "threshold": [0.5560664683580399, -0.17986516654491425, -0.6901326477527618, -2.0, -0.5226880609989166, -2.0, -2.0, 0.3390085846185684, -2.0, -2.0, -1.0115682184696198, -2.0, -2.0], "value": [[[0.5796178343949049, 0.4203821656050958], [0.750515463917526, 0.2494845360824743], [0.8842105263157894, 0.11578947368421051], [0.3888888888888889, 0.611111111111111], [0.9360465116279069, 0.06395348837209301], [0.7608695652173912, 0.2391304347826087], [1.0, 0.0], [0.26666666666666666, 0.7333333333333334], [0.5599999999999999, 0.43999999999999995], [0.0, 1.0], [0.0, 1.0], [0.0, 1.0], [0.0, 1.0]]]}, {"n_nodes": 15, "children_left": [1, 2, 3, 4, -1, -1, -1, 8, 9, -1, -1, -1, 13, -1, -1], "children_right": [12, 7, 6, 5, -1, -1, -1, 11, 10, -1, -1, -1, 14, -1, -1], "feature": [7, 2, 3, 10, -2, -2, -2, 9, 3, -2, -2, -2, 1, -2, -2], "threshold": [0.579820305109024, -0.3196578547358513, 0.9422719478607178, 0.9720743000507355, -2.0, -2.0, -2.0, 0.3911703824996948, -0.9963343441486359, -2.0, -2.0, -2.0, 1.4821888208389282, -2.0, -2.0], "value": [[[0.30899830220713104, 0.6910016977928698], [0.4183908045977012, 0.5816091954022989], [0.6666666666666667, 0.33333333333333337], [0.4210526315789473, 0.5789473684210524], [0.2978723404255319, 0.7021276595744681], [0.717948717948718, 0.28205128205128205], [1.0, 0.0], [0.13725490196078433, 0.8627450980392156], [0.3373493975903614, 0.6626506024096385], [0.0, 1.0], [0.5599999999999999, 0.43999999999999995], [0.0, 1.0], [0.0, 1.0], [0.0, 1.0], [0.0, 1.0]]]}, {"n_nodes": 11, "children_left": [1, 2, -1, 4, 5, -1, -1, -1, 9, -1, -1], "children_right": [8, 3, -1, 7, 6, -1, -1, -1, 10, -1, -1], "feature": [1, 1, -2, 7, 11, -2, -2, -2, 4, -2, -2], "threshold": [0.3847595229744911, -0.9533083438873291, -2.0, 0.27145030349493027, 0.8118741810321808, -2.0, -2.0, -2.0, -1.6333226561546326, -2.0, -2.0], "value": [[[0.47960848287112573, 0.5203915171288744], [0.7480916030534351, 0.2519083969465649], [0.0, 1.0], [0.8424068767908309, 0.15759312320916904], [0.6961325966850829, 0.3038674033149171], [0.8166666666666667, 0.18333333333333332], [0.4590163934426229, 0.540983606557377], [1.0, 0.0], [0.0, 1.0], [0.0, 1.0], [0.0, 1.0]]]}, {"n_nodes": 11, "children_left": [1, 2, -1, 4, 5, -1, -1, -1, 9, -1, -1], "children_right": [8, 3, -1, 7, 6, -1, -1, -1, 10, -1, -1], "feature": [6, 6, -2, 4, 0, -2, -2, -2, 2, -2, -2], "threshold": [-0.43086110055446625, -0.4637753367424011, -2.0, 0.7961840480566025, 0.013645529747009277, -2.0, -2.0, -2.0, -0.3511122018098831, -2.0, -2.0], "value": [[[0.47960848287112595, 0.5203915171288747], [0.8286604361370717, 0.17133956386292834], [1.0, 0.0], [0.696132596685083, 0.30386740331491713], [0.9197080291970804, 0.08029197080291971], [0.717948717948718, 0.28205128205128205], [1.0, 0.0], [0.0, 1.0], [0.09589041095890412, 0.9041095890410958], [0.3373493975903614, 0.6626506024096385], [0.0, 1.0]]]}, {"n_nodes": 11, "children_left": [1, 2, -1, 4, 5, -1, -1, -1, 9, -1, -1], "children_right": [8, 3, -1, 7, 6, -1, -1, -1, 10, -1, -1], "feature": [1, 7, -2, 6, 2, -2, -2, -2, 4, -2, -2], "threshold": [0.3847595229744911, -0.3719012141227722, -2.0, -0.44099758565425873, -0.7636303901672363, -2.0, -2.0, -2.0, -1.6089621186256409, -2.0, -2.0], "value": [[[0.5201938610662361, 0.4798061389337642], [0.7924528301886793, 0.20754716981132074], [0.38888888888888884, 0.611111111111111], [0.9581749049429656, 0.04182509505703421], [1.0, 0.0], [1.0, 0.0], [1.0, 0.0], [0.7924528301886792, 0.20754716981132074], [0.11290322580645164, 0.8870967741935485], [0.3373493975903614, 0.6626506024096385], [0.0, 1.0]]]}, {"n_nodes": 9, "children_left": [1, 2, 3, -1, -1, -1, 7, -1, -1], "children_right": [6, 5, 4, -1, -1, -1, 8, -1, -1], "feature": [2, 7, 8, -2, -2, -2, 3, -2, -2], "threshold": [-0.17986516654491425, -0.0909414067864418, 0.4751601964235306, -2.0, -2.0, -2.0, -0.7166768610477448, -2.0, -2.0], "value": [[[0.7118644067796611, 0.288135593220339], [0.9079497907949792, 0.09205020920502094], [0.65625, 0.34374999999999994], [0.2413793103448276, 0.7586206896551725], [1.0, 0.0], [1.0, 0.0], [0.16374269005847955, 0.8362573099415204], [0.0, 1.0], [0.4590163934426229, 0.540983606557377]]]}, {"n_nodes": 9, "children_left": [1, -1, 3, 4, 5, -1, -1, -1, -1], "children_right": [2, -1, 8, 7, 6, -1, -1, -1, -1], "feature": [3, -2, 3, 9, 8, -2, -2, -2, -2], "threshold": [-0.17519869655370712, -2.0, 0.9270873069763184, -0.40070323646068573, -0.46781647950410843, -2.0, -2.0, -2.0, -2.0], "value": [[[0.5401929260450161, 0.4598070739549839], [0.0, 1.0], [0.835820895522388, 0.16417910447761194], [0.6292134831460674, 0.3707865168539326], [0.2978723404255319, 0.7021276595744681], [0.2413793103448276, 0.7586206896551725], [0.3888888888888889, 0.611111111111111], [1.0, 0.0], [1.0, 0.0]]]}, {"n_nodes": 13, "children_left": [1, 2, 3, 4, -1, -1, -1, 8, -1, -1, 11, -1, -1], "children_right": [10, 7, 6, 5, -1, -1, -1, 9, -1, -1, 12, -1, -1], "feature": [1, 9, 6, 3, -2, -2, -2, 9, -2, -2, 5, -2, -2], "threshold": [0.385483093559742, -0.3977137506008148, -0.3849576264619827, 0.912003755569458, -2.0, -2.0, -2.0, 0.1913172695785761, -2.0, -2.0, -1.854553461074829, -2.0, -2.0], "value": [[[0.3960066555740434, 0.6039933444259569], [0.6246719160104987, 0.37532808398950135], [0.3465346534653465, 0.6534653465346534], [0.5599999999999998, 0.4399999999999999], [0.7924528301886792, 0.20754716981132074], [0.3888888888888889, 0.611111111111111], [0.0, 1.0], [0.9385474860335196, 0.061452513966480445], [1.0, 0.0], [0.717948717948718, 0.28205128205128205], [0.0, 1.0], [0.0, 1.0], [0.0, 1.0]]]}, {"n_nodes": 13, "children_left": [1, 2, 3, -1, -1, -1, 7, 8, 9, -1, -1, -1, -1], "children_right": [6, 5, 4, -1, -1, -1, 12, 11, 10, -1, -1, -1, -1], "feature": [6, 8, 1, -2, -2, -2, 11, 6, 1, -2, -2, -2, -2], "threshold": [-0.43230167031288147, 0.37490884959697723, -0.8394195139408112, -2.0, -2.0, -2.0, 0.24933184683322906, 0.21952462568879128, -0.3793979287147522, -2.0, -2.0, -2.0, -2.0], "value": [[[0.4590163934426232, 0.5409836065573772], [0.8439716312056738, 0.15602836879432622], [0.9468599033816426, 0.05314009661835749], [0.7924528301886792, 0.20754716981132074], [1.0, 0.0], [0.5599999999999999, 0.43999999999999995], [0.12804878048780488, 0.8719512195121951], [0.05468749999999999, 0.9453124999999998], [0.0, 1.0], [0.0, 1.0], [0.0, 1.0], [0.175, 0.825], [0.38888888888888884, 0.611111111111111]]]}, {"n_nodes": 11, "children_left": [1, 2, -1, -1, 5, 6, -1, 8, -1, -1, -1], "children_right": [4, 3, -1, -1, 10, 7, -1, 9, -1, -1, -1], "feature": [6, 0, -2, -2, 3, 0, -2, 9, -2, -2, -2], "threshold": [-0.43086110055446625, -0.08376257121562958, -2.0, -2.0, 0.5916444063186646, -0.61686110496521, -2.0, -0.551481619477272, -2.0, -2.0, -2.0], "value": [[[0.5600000000000003, 0.44000000000000017], [0.8945686900958467, 0.10543130990415336], [0.6292134831460673, 0.37078651685393255], [1.0, 0.0], [0.22435897435897437, 0.7756410256410255], [0.06603773584905662, 0.9339622641509434], [0.3888888888888889, 0.611111111111111], [0.0, 1.0], [0.0, 1.0], [0.0, 1.0], [0.5599999999999999, 0.43999999999999995]]]}, {"n_nodes": 13, "children_left": [1, 2, -1, 4, 5, -1, -1, 8, -1, -1, 11, -1, -1], "children_right": [10, 3, -1, 7, 6, -1, -1, 9, -1, -1, 12, -1, -1], "feature": [6, 3, -2, 4, 3, -2, -2, 8, -2, -2, 6, -2, -2], "threshold": [-0.36802347004413605, -0.8113858997821808, -2.0, 1.0520374178886414, -0.17519869655370712, -2.0, -2.0, 0.2745523899793625, -2.0, -2.0, -0.05010730214416981, -2.0, -2.0], "value": [[[0.5600000000000003, 0.44000000000000017], [0.8135593220338985, 0.18644067796610173], [0.0, 1.0], [0.910569105691057, 0.08943089430894309], [0.9621993127147765, 0.03780068728522336], [0.717948717948718, 0.28205128205128205], [1.0, 0.0], [0.7179487179487178, 0.282051282051282], [0.3888888888888889, 0.611111111111111], [1.0, 0.0], [0.06603773584905662, 0.9339622641509435], [0.0, 1.0], [0.175, 0.825]]]}, {"n_nodes": 11, "children_left": [1, 2, -1, -1, 5, 6, -1, -1, 9, -1, -1], "children_right": [4, 3, -1, -1, 8, 7, -1, -1, 10, -1, -1], "feature": [6, 5, -2, -2, 8, 3, -2, -2, 5, -2, -2], "threshold": [-0.43086110055446625, -0.13760915398597717, -2.0, -2.0, 0.5119209289550781, 0.4298660606145859, -2.0, -2.0, 0.9036787450313568, -2.0, -2.0], "value": [[[0.5600000000000003, 0.4400000000000001], [0.8842105263157894, 0.11578947368421051], [0.5599999999999999, 0.43999999999999995], [1.0, 0.0], [0.28823529411764703, 0.711764705882353], [0.059829059829059845, 0.9401709401709404], [0.0, 1.0], [0.3888888888888889, 0.611111111111111], [0.7924528301886793, 0.20754716981132074], [1.0, 0.0], [0.6562499999999999, 0.34374999999999994]]]}, {"n_nodes": 11, "children_left": [1, -1, 3, 4, -1, -1, 7, -1, 9, -1, -1], "children_right": [2, -1, 6, 5, -1, -1, 8, -1, 10, -1, -1], "feature": [3, -2, 7, 10, -2, -2, 3, -2, 4, -2, -2], "threshold": [-0.6778070032596588, -2.0, -0.3719012141227722, -0.40555495768785477, -2.0, -2.0, 0.4197593927383423, -2.0, 1.3428317308425903, -2.0, -2.0], "value": [[[0.6373626373626375, 0.3626373626373626], [0.0, 1.0], [0.754646840148699, 0.2453531598513011], [0.2978723404255319, 0.7021276595744681], [0.0, 1.0], [0.717948717948718, 0.28205128205128205], [0.8513513513513514, 0.14864864864864866], [1.0, 0.0], [0.7608695652173914, 0.2391304347826087], [0.8990825688073393, 0.10091743119266054], [0.2413793103448276, 0.7586206896551725]]]}, {"n_nodes": 11, "children_left": [1, 2, -1, 4, -1, -1, 7, -1, 9, -1, -1], "children_right": [6, 3, -1, 5, -1, -1, 8, -1, 10, -1, -1], "feature": [2, 3, -2, 3, -2, -2, 0, -2, 6, -2, -2], "threshold": [-0.2041255310177803, 0.35898181796073914, -2.0, 0.78128981590271, -2.0, -2.0, -0.8194555044174194, -2.0, -0.4259391725063324, -2.0, -2.0], "value": [[[0.3745819397993313, 0.625418060200669], [0.664406779661017, 0.33559322033898303], [1.0, 0.0], [0.2978723404255319, 0.7021276595744681], [0.0, 1.0], [0.65625, 0.34375], [0.09240924092409242, 0.9075907590759076], [0.3888888888888889, 0.611111111111111], [0.05243445692883895, 0.947565543071161], [0.2413793103448276, 0.7586206896551725], [0.0, 1.0]]]}, {"n_nodes": 11, "children_left": [1, 2, 3, -1, -1, 6, -1, -1, 9, -1, -1], "children_right": [8, 5, 4, -1, -1, 7, -1, -1, 10, -1, -1], "feature": [4, 6, 1, -2, -2, 8, -2, -2, 8, -2, -2], "threshold": [0.759492963552475, -0.4289410561323166, 0.21275994926691055, -2.0, -2.0, 0.7245575487613678, -2.0, -2.0, 0.4934551417827606, -2.0, -2.0], "value": [[[0.5201938610662361, 0.4798061389337643], [0.38888888888888884, 0.6111111111111109], [0.7777777777777777, 0.2222222222222222], [1.0, 0.0], [0.3888888888888889, 0.611111111111111], [0.1037037037037037, 0.8962962962962963], [0.0, 1.0], [0.3888888888888889, 0.611111111111111], [0.9271523178807948, 0.07284768211920531], [0.835820895522388, 0.16417910447761191], [1.0, 0.0]]]}, {"n_nodes": 13, "children_left": [1, 2, 3, -1, -1, 6, -1, -1, 9, 10, -1, -1, -1], "children_right": [8, 5, 4, -1, -1, 7, -1, -1, 12, 11, -1, -1, -1], "feature": [2, 3, 3, -2, -2, 7, -2, -2, 0, 8, -2, -2, -2], "threshold": [-0.2041255310177803, 0.9270873069763184, 0.35898181796073914, -2.0, -2.0, 0.3383907675743103, -2.0, -2.0, 0.43570513278245926, 0.6978579461574554, -2.0, -2.0, -2.0], "value": [[[0.5600000000000004, 0.44000000000000017], [0.8, 0.2], [0.6292134831460674, 0.3707865168539326], [1.0, 0.0], [0.175, 0.825], [0.9468599033816425, 0.05314009661835749], [1.0, 0.0], [0.835820895522388, 0.16417910447761191], [0.17500000000000002, 0.825], [0.07821229050279331, 0.9217877094972068], [0.0, 1.0], [0.2978723404255319, 0.7021276595744681], [0.4590163934426229, 0.540983606557377]]]}, {"n_nodes": 11, "children_left": [1, 2, 3, -1, 5, -1, -1, -1, 9, -1, -1], "children_right": [8, 7, 4, -1, 6, -1, -1, -1, 10, -1, -1], "feature": [2, 11, 10, -2, 5, -2, -2, -2, 3, -2, -2], "threshold": [-0.2041255310177803, 0.616636335849762, -0.5928508043289185, -2.0, 0.03649952821433544, -2.0, -2.0, -2.0, -0.6857053339481354, -2.0, -2.0], "value": [[[0.6182965299684545, 0.38170347003154587], [0.8465116279069769, 0.15348837209302327], [0.930379746835443, 0.06962025316455694], [0.3888888888888889, 0.611111111111111], [1.0, 0.0], [1.0, 0.0], [1.0, 0.0], [0.6140350877192982, 0.38596491228070173], [0.13725490196078433, 0.8627450980392156], [0.0, 1.0], [0.5599999999999999, 0.43999999999999995]]]}, {"n_nodes": 11, "children_left": [1, -1, 3, 4, -1, -1, 7, 8, -1, -1, -1], "children_right": [2, -1, 6, 5, -1, -1, 10, 9, -1, -1, -1], "feature": [3, -2, 0, 5, -2, -2, 5, 10, -2, -2, -2], "threshold": [-0.6778070032596588, -2.0, -0.4894915670156479, -0.02173370122909546, -2.0, -2.0, 0.49328823387622833, 1.0918334424495697, -2.0, -2.0, -2.0], 